{"learner":{"attributes":{"scikit_learn":"{\"_estimator_type\": \"regressor\"}"},"feature_names":[],"feature_types":[],"gradient_booster":{"model":{"cats":{"enc":[],"feature_segments":[],"sorted_idx":[]},"gbtree_model_param":{"num_parallel_tree":"1","num_trees":"200"},"iteration_indptr":[0,1,2,3,4,5,6,7,8,9,10,11,12,13,14,15,16,17,18,19,20,21,22,23,24,25,26,27,28,29,30,31,32,33,34,35,36,37,38,39,40,41,42,43,44,45,46,47,48,49,50,51,52,53,54,55,56,57,58,59,60,61,62,63,64,65,66,67,68,69,70,71,72,73,74,75,76,77,78,79,80,81,82,83,84,85,86,87,88,89,90,91,92,93,94,95,96,97,98,99,100,101,102,103,104,105,106,107,108,109,110,111,112,113,114,115,116,117,118,119,120,121,122,123,124,125,126,127,128,129,130,131,132,133,134,135,136,137,138,139,140,141,142,143,144,145,146,147,148,149,150,151,152,153,154,155,156,157,158,159,160,161,162,163,164,165,166,167,168,169,170,171,172,173,174,175,176,177,178,179,180,181,182,183,184,185,186,187,188,189,190,191,192,193,194,195,196,197,198,199,200],"tree_info":[0,0,0,0,0,0,0,0,0,0,0,0,0,0,0,0,0,0,0,0,0,0,0,0,0,0,0,0,0,0,0,0,0,0,0,0,0,0,0,0,0,0,0,0,0,0,0,0,0,0,0,0,0,0,0,0,0,0,0,0,0,0,0,0,0,0,0,0,0,0,0,0,0,0,0,0,0,0,0,0,0,0,0,0,0,0,0,0,0,0,0,0,0,0,0,0,0,0,0,0,0,0,0,0,0,0,0,0,0,0,0,0,0,0,0,0,0,0,0,0,0,0,0,0,0,0,0,0,0,0,0,0,0,0,0,0,0,0,0,0,0,0,0,0,0,0,0,0,0,0,0,0,0,0,0,0,0,0,0,0,0,0,0,0,0,0,0,0,0,0,0,0,0,0,0,0,0,0,0,0,0,0,0,0,0,0,0,0,0,0,0,0,0,0,0,0,0,0,0,0],"trees":[{"base_weights":[2.6387526E-5,2.8708968E-3,-1.3643068E-1,-3.4550412E-4,1.14327356E-1,-1.3870345E-1,2.1407695E-2,-2.750547E-3,1.3725093E-1,1.0621142E-1,2.2012211E-1,-1.3940877E-1,-7.964029E-2,2.2626832E-2,-3.248342E-2,-1.2543965E-4,-9.7491525E-2,1.4299421E-1,1.6668845E-2,1.12590596E-1,-1.8689616E-3,3.3574929E-3,2.2665133E-1,-1.4120862E-2,-1.21143304E-1,-9.8944595E-3,-8.050159E-3,-1.086571E-2,3.49522E-3,-2.563632E-3,8.919733E-2,-1.05068125E-2,-8.574197E-2,5.2268166E-2,1.4953715E-1,-7.953238E-3,2.5037112E-2,1.1877681E-1,5.2422453E-2,2.642748E-2,-3.0076405E-2,1.7602105E-1,2.5527117E-1,-1.2371189E-2,-3.3671446E-2,-1.3841831E-3,1.7665923E-4,-8.005927E-6,-8.576494E-3,8.041063E-3,1.7850662E-2,-8.621877E-3,2.4357692E-3,1.7988322E-2,4.2018224E-3,1.4089333E-2,2.1143047E-2,4.829446E-3,-1.8792885E-3,1.2327228E-2,4.739105E-3,2.9698738E-3,7.6387213E-3,3.764477E-3,-5.3424533E-3,-6.8515926E-3,-1.7001464E-3,1.9044781E-2,6.3488754E-3,2.8028622E-2,1.6298035E-2,-5.657412E-4,-4.4849757E-3],"categories":[],"categories_nodes":[],"categories_segments":[],"categories_sizes":[],"default_left":[0,0,0,0,0,0,0,0,0,0,0,0,0,0,0,0,0,0,0,0,0,0,0,0,0,0,0,0,0,0,0,0,0,0,0,0,0,0,0,0,0,0,0,0,0,0,0,0,0,0,0,0,0,0,0,0,0,0,0,0,0,0,0,0,0,0,0,0,0,0,0,0,0],"id":0,"left_children":[1,3,5,7,9,11,13,15,17,19,21,23,25,-1,27,29,31,33,35,37,39,-1,41,-1,43,-1,45,-1,-1,47,49,-1,51,53,55,-1,57,59,61,63,65,67,69,-1,71,-1,-1,-1,-1,-1,-1,-1,-1,-1,-1,-1,-1,-1,-1,-1,-1,-1,-1,-1,-1,-1,-1,-1,-1,-1,-1,-1,-1],"loss_changes":[1.0891976E1,9.854175E0,2.0852184E-1,8.842041E0,6.386204E-1,1.2434959E-2,1.06711484E-1,6.5309863E0,3.1549072E-1,4.9524593E-1,5.8162212E-2,1.2044907E-3,1.164145E-2,0E0,4.4892363E-2,5.565317E0,5.4018497E-2,2.5218678E-1,1.9702084E-2,2.4613285E-1,3.351982E-2,0E0,3.0416727E-2,0E0,8.641124E-3,0E0,1.9501906E-4,0E0,0E0,5.140076E0,5.184808E-1,0E0,1.695633E-2,3.299108E-2,1.8848896E-1,0E0,2.231435E-2,1.911974E-1,3.312835E-2,2.0821346E-2,9.389613E-3,2.3625195E-2,2.588725E-2,0E0,6.857151E-4,0E0,0E0,0E0,0E0,0E0,0E0,0E0,0E0,0E0,0E0,0E0,0E0,0E0,0E0,0E0,0E0,0E0,0E0,0E0,0E0,0E0,0E0,0E0,0E0,0E0,0E0,0E0,0E0],"parents":[2147483647,0,0,1,1,2,2,3,3,4,4,5,5,6,6,7,7,8,8,9,9,10,10,11,11,12,12,14,14,15,15,16,16,17,17,18,18,19,19,20,20,22,22,24,24,26,26,29,29,30,30,32,32,33,33,34,34,36,36,37,37,38,38,39,39,40,40,41,41,42,42,44,44],"right_children":[2,4,6,8,10,12,14,16,18,20,22,24,26,-1,28,30,32,34,36,38,40,-1,42,-1,44,-1,46,-1,-1,48,50,-1,52,54,56,-1,58,60,62,64,66,68,70,-1,72,-1,-1,-1,-1,-1,-1,-1,-1,-1,-1,-1,-1,-1,-1,-1,-1,-1,-1,-1,-1,-1,-1,-1,-1,-1,-1,-1,-1],"split_conditions":[1E0,1E0,3.781609E-1,1E0,1E0,3.33608E-1,-2.3971608E-2,1E0,1E0,1E0,-2.2755754E-1,1E0,1.2171612E-1,2.2626832E-2,4.7684255E-1,1E0,4E-1,3E-1,-1.7184305E-1,1E0,1.2003101E-2,3.3574929E-3,4E-1,-1.4120862E-2,5E-1,-9.8944595E-3,1.731766E-1,-1.086571E-2,3.49522E-3,1E0,1E0,-1.05068125E-2,4.7684255E-1,-2.0777088E-1,1E0,-7.953238E-3,1.1271517E-1,5E-1,4E-1,5E-1,4.4594884E-2,2.0652494E-1,5E-1,-1.2371189E-2,-1.7513447E-1,-1.3841831E-3,1.7665923E-4,-8.005927E-6,-8.576494E-3,8.041063E-3,1.7850662E-2,-8.621877E-3,2.4357692E-3,1.7988322E-2,4.2018224E-3,1.4089333E-2,2.1143047E-2,4.829446E-3,-1.8792885E-3,1.2327228E-2,4.739105E-3,2.9698738E-3,7.6387213E-3,3.764477E-3,-5.3424533E-3,-6.8515926E-3,-1.7001464E-3,1.9044781E-2,6.3488754E-3,2.8028622E-2,1.6298035E-2,-5.657412E-4,-4.4849757E-3],"split_indices":[103,73,1,44,10,2,2,81,17,17,1,14,1,0,1,64,8,8,2,14,2,0,8,0,8,0,1,0,0,71,10,0,1,1,10,0,2,8,8,8,2,2,8,0,1,0,0,0,0,0,0,0,0,0,0,0,0,0,0,0,0,0,0,0,0,0,0,0,0,0,0,0,0],"split_type":[0,0,0,0,0,0,0,0,0,0,0,0,0,0,0,0,0,0,0,0,0,0,0,0,0,0,0,0,0,0,0,0,0,0,0,0,0,0,0,0,0,0,0,0,0,0,0,0,0,0,0,0,0,0,0,0,0,0,0,0,0,0,0,0,0,0,0,0,0,0,0,0,0],"sum_hessian":[2.8059E4,2.7487E4,5.72E2,2.6717E4,7.7E2,5.64E2,8E0,2.6259E4,4.58E2,7.17E2,5.3E1,5.56E2,8E0,1E0,7E0,2.5552E4,7.07E2,4.37E2,2.1E1,6.77E2,4E1,2E0,5.1E1,5E2,5.6E1,6E0,2E0,3E0,4E0,2.4874E4,6.78E2,4.25E2,2.82E2,3E1,4.07E2,1E0,2E1,6.13E2,6.4E1,2E1,2E1,2.1E1,3E1,5.4E1,2E0,1E0,1E0,2.4154E4,7.2E2,6.19E2,5.9E1,2.81E2,1E0,1E0,2.9E1,3.6E2,4.7E1,1.3E1,7E0,5.76E2,3.7E1,3.4E1,3E1,1.8E1,2E0,4E0,1.6E1,1.8E1,3E0,2.2E1,8E0,1E0,1E0],"tree_param":{"num_deleted":"0","num_feature":"157","num_nodes":"73","size_leaf_vector":"1"}},{"base_weights":[-2.870281E-4,-3.3620421E-3,1.09040506E-1,-5.637689E-3,1.2657972E-1,1.0011779E-1,2.1654075E-1,-3.1719296E-3,-1.23041406E-1,1.3161677E-1,1.2615016E-2,1.0501558E-1,-4.947249E-4,1.4993118E-1,2.56029E-1,-7.5136E-4,-8.8508494E-2,-1.2485158E-1,3.5728905E-2,1.1274731E-1,1.5755218E-1,-4.2500664E-2,5.7493497E-2,1.0933339E-1,4.0315088E-2,3.5432696E-2,-3.8506426E-2,4.922971E-5,1.564071E-1,1.206141E-3,2.6284978E-1,-4.3174843E-3,5.4953013E-2,-9.5428385E-2,-7.8215085E-2,-1.2639335E-2,-1.0740901E-1,2.1495491E-2,-2.9967917E-2,1.9739261E-1,1.0685545E-1,1.7437714E-1,7.6711155E-2,5.3875186E-3,-9.1466345E-3,8.6818915E-3,-9.2587026E-4,1.143488E-1,5.5435676E-2,7.652473E-2,-2.1695795E-2,4.9211077E-2,-4.9862894E-3,-5.1266644E-2,2.3714365E-3,1.6812275E-1,5.8727093E-2,2.731331E-2,6.554437E-3,-1.0636132E-4,-6.0418164E-3,2.485479E-3,7.5198873E-3,-9.098071E-3,-1.0154507E-2,-7.863568E-3,2.3139806E-3,6.584399E-4,-1.0982056E-2,-8.460584E-3,1.8502508E-3,2.085056E-2,1.5349098E-3,5.2187797E-3,1.13545535E-2,1.7932957E-2,1.0082929E-2,1.2562967E-2,6.372412E-4,-9.5619395E-4,2.352429E-3,1.5141483E-3,-1.66846E-3,1.0355967E-2,1.3402568E-2,3.7730478E-3,9.383406E-3,1.6851928E-2,3.7835152E-3,-5.6664287E-3,1.0611787E-2,7.3981826E-4,9.00992E-3,-5.9990925E-3,-2.1887447E-4,-1.333404E-3,3.259667E-3,3.4943484E-3,1.7329307E-2,1.0442463E-2,8.686374E-4],"categories":[],"categories_nodes":[],"categories_segments":[],"categories_sizes":[],"default_left":[0,0,0,0,0,0,0,0,0,0,0,0,0,0,0,0,0,0,0,0,0,0,0,0,0,0,0,0,0,0,0,0,0,0,0,0,0,0,0,0,0,0,0,0,0,0,0,0,0,0,0,0,0,0,0,0,0,0,0,0,0,0,0,0,0,0,0,0,0,0,0,0,0,0,0,0,0,0,0,0,0,0,0,0,0,0,0,0,0,0,0,0,0,0,0,0,0,0,0,0,0],"id":1,"left_children":[1,3,5,7,9,11,13,15,17,19,21,23,25,27,29,31,33,35,37,39,41,43,45,47,49,51,53,-1,55,-1,57,59,61,63,65,-1,67,-1,69,71,73,75,77,79,-1,-1,81,83,85,87,89,91,-1,93,95,97,99,-1,-1,-1,-1,-1,-1,-1,-1,-1,-1,-1,-1,-1,-1,-1,-1,-1,-1,-1,-1,-1,-1,-1,-1,-1,-1,-1,-1,-1,-1,-1,-1,-1,-1,-1,-1,-1,-1,-1,-1,-1,-1,-1,-1],"loss_changes":[9.4377165E0,8.074844E0,7.1498203E-1,7.7683454E0,2.6814175E-1,3.504181E-1,1.1417031E-1,5.4294443E0,1.6310596E-1,2.0246077E-1,5.438718E-2,1.850009E-1,4.779691E-2,2.3149133E-2,5.5071354E-2,5.0778975E0,4.417658E-2,1.1081696E-3,8.88638E-2,1.1056924E-1,2.4097109E-1,2.3941552E-2,2.0638455E-2,1.6531324E-1,1.004575E-1,2.3608038E-2,8.988952E-3,0E0,1.6447544E-2,0E0,5.1082134E-2,4.385382E0,9.353337E-1,2.4323463E-3,1.4480352E-2,0E0,1.474303E-2,0E0,1.745536E-2,2.9168248E-2,8.514118E-2,3.8011074E-2,1.16188854E-1,1.851747E-3,0E0,0E0,1.5186348E-3,1.0925293E-1,3.453125E-2,9.328249E-2,8.199376E-2,2.6687838E-2,0E0,5.434897E-3,2.8081536E-3,7.7161193E-3,8.239878E-3,0E0,0E0,0E0,0E0,0E0,0E0,0E0,0E0,0E0,0E0,0E0,0E0,0E0,0E0,0E0,0E0,0E0,0E0,0E0,0E0,0E0,0E0,0E0,0E0,0E0,0E0,0E0,0E0,0E0,0E0,0E0,0E0,0E0,0E0,0E0,0E0,0E0,0E0,0E0,0E0,0E0,0E0,0E0,0E0],"parents":[2147483647,0,0,1,1,2,2,3,3,4,4,5,5,6,6,7,7,8,8,9,9,10,10,11,11,12,12,13,13,14,14,15,15,16,16,17,17,18,18,19,19,20,20,21,21,22,22,23,23,24,24,25,25,26,26,28,28,30,30,31,31,32,32,33,33,34,34,36,36,38,38,39,39,40,40,41,41,42,42,43,43,46,46,47,47,48,48,49,49,50,50,51,51,53,53,54,54,55,55,56,56],"right_children":[2,4,6,8,10,12,14,16,18,20,22,24,26,28,30,32,34,36,38,40,42,44,46,48,50,52,54,-1,56,-1,58,60,62,64,66,-1,68,-1,70,72,74,76,78,80,-1,-1,82,84,86,88,90,92,-1,94,96,98,100,-1,-1,-1,-1,-1,-1,-1,-1,-1,-1,-1,-1,-1,-1,-1,-1,-1,-1,-1,-1,-1,-1,-1,-1,-1,-1,-1,-1,-1,-1,-1,-1,-1,-1,-1,-1,-1,-1,-1,-1,-1,-1,-1,-1],"split_conditions":[1E0,1E0,1E0,1E0,1E0,1E0,4E-1,1E0,3.781609E-1,4E-1,-5.881298E-3,5E-1,9.047038E-3,-2.073102E-1,-2.2755754E-1,1E0,4E-1,1E0,-2.3971608E-2,-1.5758449E-1,5E-1,-6.085806E-2,6.8041384E-2,1E0,1E0,5E-1,1.4889927E-1,4.922971E-5,2.0832908E-1,1.206141E-3,2.7185014E-1,1E0,4E-1,1.4889927E-1,4.7684255E-1,-1.2639335E-2,3E-1,2.1495491E-2,4.7684255E-1,1E0,3E-1,1.6230527E-1,1E0,-7.8567415E-2,-9.1466345E-3,8.6818915E-3,2.7948115E-2,4E-1,9.844737E-2,1.8740019E-2,9.78303E-2,4E-1,-4.9862894E-3,5E-1,1.6950381E-1,-2.2755754E-1,-7.8567415E-2,2.731331E-2,6.554437E-3,-1.0636132E-4,-6.0418164E-3,2.485479E-3,7.5198873E-3,-9.098071E-3,-1.0154507E-2,-7.863568E-3,2.3139806E-3,6.584399E-4,-1.0982056E-2,-8.460584E-3,1.8502508E-3,2.085056E-2,1.5349098E-3,5.2187797E-3,1.13545535E-2,1.7932957E-2,1.0082929E-2,1.2562967E-2,6.372412E-4,-9.5619395E-4,2.352429E-3,1.5141483E-3,-1.66846E-3,1.0355967E-2,1.3402568E-2,3.7730478E-3,9.383406E-3,1.6851928E-2,3.7835152E-3,-5.6664287E-3,1.0611787E-2,7.3981826E-4,9.00992E-3,-5.9990925E-3,-2.1887447E-4,-1.333404E-3,3.259667E-3,3.4943484E-3,1.7329307E-2,1.0442463E-2,8.686374E-4],"split_indices":[73,44,10,103,17,17,8,81,1,8,1,8,2,2,1,10,8,14,2,2,8,1,1,14,15,8,2,0,2,0,2,17,8,2,1,0,8,0,1,15,8,1,15,1,0,0,2,8,2,2,1,8,0,8,1,1,1,0,0,0,0,0,0,0,0,0,0,0,0,0,0,0,0,0,0,0,0,0,0,0,0,0,0,0,0,0,0,0,0,0,0,0,0,0,0,0,0,0,0,0,0],"split_type":[0,0,0,0,0,0,0,0,0,0,0,0,0,0,0,0,0,0,0,0,0,0,0,0,0,0,0,0,0,0,0,0,0,0,0,0,0,0,0,0,0,0,0,0,0,0,0,0,0,0,0,0,0,0,0,0,0,0,0,0,0,0,0,0,0,0,0,0,0,0,0,0,0,0,0,0,0,0,0,0,0,0,0,0,0,0,0,0,0,0,0,0,0,0,0,0,0,0,0,0,0],"sum_hessian":[2.8071E4,2.7304E4,7.67E2,2.6835E4,4.69E2,7.1E2,5.7E1,2.6284E4,5.51E2,4.49E2,2E1,6.77E2,3.3E1,2.3E1,3.4E1,2.556E4,7.24E2,5.45E2,6E0,2.63E2,1.86E2,9E0,1.1E1,6.34E2,4.3E1,1.7E1,1.6E1,1E0,2.2E1,1E0,3.3E1,2.4023E4,1.537E3,4.28E2,2.96E2,4.95E2,5E1,1E0,5E0,1.5E1,2.48E2,1.53E2,3.3E1,5E0,4E0,7E0,4E0,5.79E2,5.5E1,2.7E1,1.6E1,1.5E1,2E0,1.2E1,4E0,1.9E1,3E0,3.1E1,2E0,2.2707E4,1.316E3,6.19E2,9.18E2,2.57E2,1.71E2,2.95E2,1E0,1E0,4.9E1,2E0,3E0,1.4E1,1E0,2.8E1,2.2E2,1.42E2,1.1E1,1.9E1,1.4E1,3E0,2E0,2E0,2E0,3.78E2,2.01E2,3.9E1,1.6E1,7E0,2E1,1.3E1,3E0,8E0,7E0,1E1,2E0,3E0,1E0,1E0,1.8E1,1E0,2E0],"tree_param":{"num_deleted":"0","num_feature":"157","num_nodes":"101","size_leaf_vector":"1"}},{"base_weights":[6.883677E-4,-2.072377E-3,9.8953396E-2,2.0264804E-4,-1.10562995E-1,9.1030635E-2,2.0173076E-1,-1.7887796E-3,1.1283375E-1,-1.12244815E-1,1.9513164E-2,9.490874E-2,8.242191E-3,1.2984863E-1,2.3124826E-1,-3.3360322E-3,1.454108E-1,1.1830715E-1,1.198864E-2,-1.132151E-1,-7.260369E-2,2.0420715E-2,-3.6044143E-2,9.925858E-2,4.736878E-2,4.0128414E-2,-1.7364943E-2,1.3861878E-1,-9.6220005E-4,2.5234643E-2,1.5843926E-1,-5.56831E-3,8.148884E-2,1.1684208E-1,2.0220228E-1,1.001297E-1,1.4328788E-1,4.3483363E-3,9.767796E-3,-1.1456019E-2,-9.67258E-2,-9.2111975E-3,-1.126307E-2,-9.416239E-3,3.1085137E-2,1.02707505E-1,4.9102984E-2,3.0686155E-2,6.474289E-2,4.793825E-2,-3.4604638E-3,-5.0766982E-2,1.9565362E-3,4.676804E-5,1.47224E-1,1.9819469E-3,1.703193E-1,-7.253087E-4,1.01251295E-2,7.5057424E-3,1.5922269E-2,4.7171246E-3,1.3010802E-2,2.1601327E-2,-2.7153785E-3,1.054317E-2,2.7887088E-3,1.5562861E-2,5.5045974E-3,-3.4052208E-3,3.42096E-3,6.25518E-4,-9.91005E-3,-1.7663483E-3,7.1692915E-4,3.586258E-3,8.376405E-4,9.279498E-3,1.2267022E-2,1.05499765E-2,-2.471943E-3,1.4331685E-3,7.0888507E-3,8.962338E-3,4.3371795E-3,1.3094199E-3,8.09117E-3,-5.939142E-3,-1.9470596E-3,-1.3087739E-3,2.168948E-3,3.3196309E-3,1.5261277E-2,1.8236103E-2,3.0971915E-3],"categories":[],"categories_nodes":[],"categories_segments":[],"categories_sizes":[],"default_left":[0,0,0,0,0,0,0,0,0,0,0,0,0,0,0,0,0,0,0,0,0,0,0,0,0,0,0,0,0,0,0,0,0,0,0,0,0,0,0,0,0,0,0,0,0,0,0,0,0,0,0,0,0,0,0,0,0,0,0,0,0,0,0,0,0,0,0,0,0,0,0,0,0,0,0,0,0,0,0,0,0,0,0,0,0,0,0,0,0,0,0,0,0,0,0],"id":2,"left_children":[1,3,5,7,9,11,13,15,17,19,21,23,25,27,29,31,33,35,37,39,41,-1,43,45,47,49,51,53,-1,-1,55,57,59,61,63,65,67,69,-1,-1,71,-1,73,-1,75,77,79,81,83,85,-1,87,89,-1,91,-1,93,-1,-1,-1,-1,-1,-1,-1,-1,-1,-1,-1,-1,-1,-1,-1,-1,-1,-1,-1,-1,-1,-1,-1,-1,-1,-1,-1,-1,-1,-1,-1,-1,-1,-1,-1,-1,-1,-1],"loss_changes":[7.6043143E0,6.7295384E0,6.053753E-1,5.990269E0,1.2469864E-1,2.2813463E-1,8.454871E-2,5.9774575E0,2.5469303E-1,1.3050079E-2,8.944927E-2,1.3612318E-1,2.7641814E-2,2.3351043E-2,1.6855597E-2,4.918133E0,4.193058E-1,1.8545103E-1,1.5942574E-2,8.52108E-4,1.8108934E-2,0E0,3.0237101E-2,1.02725506E-1,1.5114188E-2,1.041368E-2,1.23614855E-2,2.0141065E-2,0E0,0E0,1.4739215E-2,4.5549846E0,3.210082E-1,1.639247E-1,2.909522E-1,9.588146E-2,1.907146E-1,2.868544E-2,0E0,0E0,1.211369E-2,0E0,7.1650837E-4,0E0,1.3355887E-4,1.0378313E-1,1.7746845E-1,2.0023664E-2,1.1001125E-2,1.5025526E-2,0E0,7.3301047E-4,4.143148E-3,0E0,4.7653317E-3,0E0,1.1131763E-2,0E0,0E0,0E0,0E0,0E0,0E0,0E0,0E0,0E0,0E0,0E0,0E0,0E0,0E0,0E0,0E0,0E0,0E0,0E0,0E0,0E0,0E0,0E0,0E0,0E0,0E0,0E0,0E0,0E0,0E0,0E0,0E0,0E0,0E0,0E0,0E0,0E0,0E0],"parents":[2147483647,0,0,1,1,2,2,3,3,4,4,5,5,6,6,7,7,8,8,9,9,10,10,11,11,12,12,13,13,14,14,15,15,16,16,17,17,18,18,19,19,20,20,22,22,23,23,24,24,25,25,26,26,27,27,30,30,31,31,32,32,33,33,34,34,35,35,36,36,37,37,40,40,42,42,44,44,45,45,46,46,47,47,48,48,49,49,51,51,52,52,54,54,56,56],"right_children":[2,4,6,8,10,12,14,16,18,20,22,24,26,28,30,32,34,36,38,40,42,-1,44,46,48,50,52,54,-1,-1,56,58,60,62,64,66,68,70,-1,-1,72,-1,74,-1,76,78,80,82,84,86,-1,88,90,-1,92,-1,94,-1,-1,-1,-1,-1,-1,-1,-1,-1,-1,-1,-1,-1,-1,-1,-1,-1,-1,-1,-1,-1,-1,-1,-1,-1,-1,-1,-1,-1,-1,-1,-1,-1,-1,-1,-1,-1,-1],"split_conditions":[1E0,1E0,1E0,1E0,3.781609E-1,1E0,4E-1,1E0,1E0,3.1757244E-1,-2.3971608E-2,1E0,1.2003101E-2,2.0832908E-1,5E-1,1E0,4E-1,4E-1,1E0,1E0,1.2171612E-1,2.0420715E-2,4.7684255E-1,5E-1,4E-1,5E-1,5.472841E-2,-2.073102E-1,-9.6220005E-4,2.5234643E-2,-1.3583349E-1,1E0,1E0,-3.53604E-2,1E0,1E0,1E0,-5.881298E-3,9.767796E-3,-1.1456019E-2,3E-1,-9.2111975E-3,2.16659E-1,-9.416239E-3,4E-1,4E-1,1E0,8.008967E-2,4.605298E-2,4E-1,-3.4604638E-3,4.4594884E-2,1.3683408E-1,4.676804E-5,-2.2755754E-1,1.9819469E-3,1.1926529E-1,-7.253087E-4,1.01251295E-2,7.5057424E-3,1.5922269E-2,4.7171246E-3,1.3010802E-2,2.1601327E-2,-2.7153785E-3,1.054317E-2,2.7887088E-3,1.5562861E-2,5.5045974E-3,-3.4052208E-3,3.42096E-3,6.25518E-4,-9.91005E-3,-1.7663483E-3,7.1692915E-4,3.586258E-3,8.376405E-4,9.279498E-3,1.2267022E-2,1.05499765E-2,-2.471943E-3,1.4331685E-3,7.0888507E-3,8.962338E-3,4.3371795E-3,1.3094199E-3,8.09117E-3,-5.939142E-3,-1.9470596E-3,-1.3087739E-3,2.168948E-3,3.3196309E-3,1.5261277E-2,1.8236103E-2,3.0971915E-3],"split_indices":[73,103,10,44,1,17,8,20,17,2,2,14,2,2,8,64,8,8,16,14,1,0,1,8,8,8,2,2,0,0,1,106,10,1,17,11,15,1,0,0,8,0,1,0,8,8,15,2,2,8,0,2,2,0,1,0,2,0,0,0,0,0,0,0,0,0,0,0,0,0,0,0,0,0,0,0,0,0,0,0,0,0,0,0,0,0,0,0,0,0,0,0,0,0,0],"split_type":[0,0,0,0,0,0,0,0,0,0,0,0,0,0,0,0,0,0,0,0,0,0,0,0,0,0,0,0,0,0,0,0,0,0,0,0,0,0,0,0,0,0,0,0,0,0,0,0,0,0,0,0,0,0,0,0,0,0,0,0,0,0,0,0,0,0,0,0,0,0,0,0,0,0,0,0,0,0,0,0,0,0,0,0,0,0,0,0,0,0,0,0,0,0,0],"sum_hessian":[2.8029E4,2.7264E4,7.65E2,2.6705E4,5.59E2,7.12E2,5.3E1,2.6242E4,4.63E2,5.52E2,7E0,6.8E2,3.2E1,1.7E1,3.6E1,2.597E4,2.72E2,4.39E2,2.4E1,5.37E2,1.5E1,1E0,6E0,6.22E2,5.8E1,1.4E1,1.8E1,1.6E1,1E0,2.6E1,1E1,2.5305E4,6.65E2,1.83E2,8.9E1,2.57E2,1.82E2,2.3E1,1E0,4.91E2,4.6E1,1.1E1,4E0,3E0,3E0,5.81E2,4.1E1,3.1E1,2.7E1,1.3E1,1E0,6E0,1.2E1,1E0,1.5E1,1E0,9E0,2.4913E4,3.92E2,6.16E2,4.9E1,3E1,1.53E2,8.4E1,5E0,2.39E2,1.8E1,1.59E2,2.3E1,1E1,1.3E1,1E0,4.5E1,3E0,1E0,2E0,1E0,3.92E2,1.89E2,2.3E1,1.8E1,2.3E1,8E0,1.1E1,1.6E1,7E0,6E0,4E0,2E0,7E0,5E0,1E0,1.4E1,8E0,1E0],"tree_param":{"num_deleted":"0","num_feature":"157","num_nodes":"95","size_leaf_vector":"1"}},{"base_weights":[-2.0312844E-4,-2.7473937E-3,8.761293E-2,-7.444308E-4,-9.986248E-2,8.056572E-2,1.7516446E-1,-2.433531E-3,9.741188E-2,-1.0124485E-1,4.257762E-2,8.54405E-2,-3.7949588E-3,1.274087E-1,2.0748219E-1,-3.709775E-3,1.2573242E-1,1.0266919E-1,-1.5377081E-2,-1.0140576E-1,-6.775536E-4,1.939968E-2,-2.6505575E-2,8.698418E-2,-1.817547E-2,3.5369084E-3,-3.4481026E-2,4.4429304E-5,1.3246949E-1,-1.15898256E-4,2.1403845E-2,-2.4463916E-3,-1.2784955E-1,9.7095534E-2,1.8636213E-1,8.8221885E-2,1.2420441E-1,1.9056346E-2,-3.3954963E-2,-1.0210616E-2,-7.522719E-2,-7.6592215E-3,3.2416258E-2,9.090471E-2,4.6958216E-2,1.0472472E-2,-5.71227E-2,2.0905448E-2,-1.9856937E-2,-7.9552755E-3,8.472565E-3,1.4884001E-1,7.907714E-2,-3.1625485E-5,-7.844205E-3,-1.2961808E-2,-7.032098E-3,-4.390173E-3,1.0142437E-2,1.4141847E-2,2.6362402E-2,3.74539E-3,9.341912E-3,1.3958712E-2,4.065746E-3,-6.93795E-4,1.0050821E-2,-9.725628E-3,1.2018689E-3,-9.6366545E-3,-2.8241556E-3,4.0666806E-3,7.957585E-4,9.366653E-3,4.9550585E-3,-1.8259675E-3,5.1689255E-3,-7.873448E-3,5.7885754E-3,-3.8629037E-4,5.8540837E-3,-2.4900031E-3,2.5373176E-3,2.2100315E-3,-2.3019218E-3,5.8808136E-3,1.564185E-2,9.2985565E-3,-9.1409014E-4],"categories":[],"categories_nodes":[],"categories_segments":[],"categories_sizes":[],"default_left":[0,0,0,0,0,0,0,0,0,0,0,0,0,0,0,0,0,0,0,0,0,0,0,0,0,0,0,0,0,0,0,0,0,0,0,0,0,0,0,0,0,0,0,0,0,0,0,0,0,0,0,0,0,0,0,0,0,0,0,0,0,0,0,0,0,0,0,0,0,0,0,0,0,0,0,0,0,0,0,0,0,0,0,0,0,0,0,0,0],"id":3,"left_children":[1,3,5,7,9,11,13,15,17,19,21,23,25,27,29,31,33,35,37,39,-1,-1,41,43,45,47,49,-1,51,-1,-1,53,55,57,59,61,63,65,67,-1,69,-1,71,73,75,-1,77,79,81,-1,83,85,87,-1,-1,-1,-1,-1,-1,-1,-1,-1,-1,-1,-1,-1,-1,-1,-1,-1,-1,-1,-1,-1,-1,-1,-1,-1,-1,-1,-1,-1,-1,-1,-1,-1,-1,-1,-1],"loss_changes":[6.2687173E0,5.3038454E0,4.7331285E-1,4.429805E0,1.1280584E-1,3.0176306E-1,6.3079596E-2,4.2968225E0,2.6959944E-1,7.612705E-3,6.790512E-2,1.1242628E-1,9.346388E-3,1.664725E-2,4.5388937E-2,4.078681E0,4.3159294E-1,1.2344885E-1,1.4080759E-2,2.3117065E-3,0E0,0E0,1.7238818E-2,1.0291004E-1,5.8634996E-2,1.4229895E-2,1.6161958E-2,0E0,1.0081679E-2,0E0,0E0,4.167929E0,1.7541409E-2,1.1309564E-1,2.4745798E-1,6.5630436E-2,2.1409059E-1,1.7635593E-2,4.1911595E-2,0E0,1.51568875E-2,0E0,2.8178282E-4,6.628466E-2,2.0382375E-2,0E0,2.6927438E-2,1.8869469E-2,4.0532867E-3,0E0,2.6545427E-3,3.0828118E-3,1.0665763E-2,0E0,0E0,0E0,0E0,0E0,0E0,0E0,0E0,0E0,0E0,0E0,0E0,0E0,0E0,0E0,0E0,0E0,0E0,0E0,0E0,0E0,0E0,0E0,0E0,0E0,0E0,0E0,0E0,0E0,0E0,0E0,0E0,0E0,0E0,0E0,0E0],"parents":[2147483647,0,0,1,1,2,2,3,3,4,4,5,5,6,6,7,7,8,8,9,9,10,10,11,11,12,12,13,13,14,14,15,15,16,16,17,17,18,18,19,19,22,22,23,23,24,24,25,25,26,26,28,28,31,31,32,32,33,33,34,34,35,35,36,36,37,37,38,38,40,40,42,42,43,43,44,44,46,46,47,47,48,48,50,50,51,51,52,52],"right_children":[2,4,6,8,10,12,14,16,18,20,22,24,26,28,30,32,34,36,38,40,-1,-1,42,44,46,48,50,-1,52,-1,-1,54,56,58,60,62,64,66,68,-1,70,-1,72,74,76,-1,78,80,82,-1,84,86,88,-1,-1,-1,-1,-1,-1,-1,-1,-1,-1,-1,-1,-1,-1,-1,-1,-1,-1,-1,-1,-1,-1,-1,-1,-1,-1,-1,-1,-1,-1,-1,-1,-1,-1,-1,-1],"split_conditions":[1E0,1E0,1E0,1E0,3.781609E-1,1E0,4E-1,1E0,1E0,4.3677956E-1,-2.3971608E-2,1E0,1.3784148E-1,-2.073102E-1,-2.2755754E-1,1E0,4E-1,4E-1,-4.4180166E-2,2.8970224E-1,-6.775536E-4,1.939968E-2,4.7684255E-1,1E0,-8.7763675E-2,1.2003101E-2,2.956973E-2,4.4429304E-5,1.1409601E-1,-1.15898256E-4,2.1403845E-2,1E0,1E0,-1.3191879E-1,1.2559745E-2,3E-1,1E0,-5.2829005E-2,4.494441E-2,-1.0210616E-2,3.1181581E-2,-7.6592215E-3,4E-1,5E-1,-1.3583349E-1,1.0472472E-2,1.17897786E-1,-5.5481475E-2,1E0,-7.9552755E-3,2.6544136E-1,-7.8567415E-2,8.077943E-2,-3.1625485E-5,-7.844205E-3,-1.2961808E-2,-7.032098E-3,-4.390173E-3,1.0142437E-2,1.4141847E-2,2.6362402E-2,3.74539E-3,9.341912E-3,1.3958712E-2,4.065746E-3,-6.93795E-4,1.0050821E-2,-9.725628E-3,1.2018689E-3,-9.6366545E-3,-2.8241556E-3,4.0666806E-3,7.957585E-4,9.366653E-3,4.9550585E-3,-1.8259675E-3,5.1689255E-3,-7.873448E-3,5.7885754E-3,-3.8629037E-4,5.8540837E-3,-2.4900031E-3,2.5373176E-3,2.2100315E-3,-2.3019218E-3,5.8808136E-3,1.564185E-2,9.2985565E-3,-9.1409014E-4],"split_indices":[73,103,10,44,1,17,8,20,17,2,2,13,1,2,1,24,8,8,1,2,0,0,1,14,2,2,2,0,2,0,0,81,12,1,1,8,15,1,1,0,1,0,8,8,1,0,2,2,16,0,2,1,1,0,0,0,0,0,0,0,0,0,0,0,0,0,0,0,0,0,0,0,0,0,0,0,0,0,0,0,0,0,0,0,0,0,0,0,0],"split_type":[0,0,0,0,0,0,0,0,0,0,0,0,0,0,0,0,0,0,0,0,0,0,0,0,0,0,0,0,0,0,0,0,0,0,0,0,0,0,0,0,0,0,0,0,0,0,0,0,0,0,0,0,0,0,0,0,0,0,0,0,0,0,0,0,0,0,0,0,0,0,0,0,0,0,0,0,0,0,0,0,0,0,0,0,0,0,0,0,0],"sum_hessian":[2.8055E4,2.7266E4,7.89E2,2.6716E4,5.5E2,7.32E2,5.7E1,2.6265E4,4.51E2,5.45E2,5E0,6.92E2,4E1,2.5E1,3.2E1,2.6007E4,2.58E2,4.31E2,2E1,5.44E2,1E0,1E0,4E0,6.82E2,1E1,3.3E1,7E0,1E0,2.4E1,1E0,3.1E1,2.5746E4,2.61E2,1.77E2,8.1E1,2.61E2,1.7E2,7E0,1.3E1,5.27E2,1.7E1,2E0,2E0,6.2E2,6.2E1,2E0,8E0,1.9E1,1.4E1,3E0,4E0,1.7E1,7E0,2.5045E4,7.01E2,2.52E2,9E0,5E0,1.72E2,5.3E1,2.8E1,2.5E1,2.36E2,1.43E2,2.7E1,6E0,1E0,5E0,8E0,1.1E1,6E0,1E0,1E0,5.8E2,4E1,4E0,5.8E1,7E0,1E0,1.2E1,7E0,1.3E1,1E0,3E0,1E0,2E0,1.5E1,6E0,1E0],"tree_param":{"num_deleted":"0","num_feature":"157","num_nodes":"89","size_leaf_vector":"1"}},{"base_weights":[-1.6299853E-4,-3.5785402E-3,5.268568E-2,-1.7094677E-3,-9.039472E-2,2.8183514E-2,6.9282636E-2,3.4859614E-4,-7.699732E-2,-9.1768205E-2,3.0239329E-2,2.6698096E-2,2.7588684E-2,8.242045E-2,2.8152555E-2,2.289787E-3,-7.108132E-2,-7.852161E-2,-3.8372036E-2,-9.243332E-2,-5.4301582E-2,1.8429697E-2,-2.6153104E-2,2.3130981E-2,1.2008735E-1,8.61176E-2,-8.597232E-3,5.3102203E-2,-4.2523414E-2,5.714678E-3,-3.989082E-2,-7.741884E-2,-6.093602E-2,-7.6499246E-2,-1.1456703E-1,-1.54641215E-2,-5.4586466E-2,-9.376402E-3,-7.819328E-2,-7.0858374E-3,-3.4734048E-3,-7.1486062E-3,1.4384892E-3,1.9573951E-2,1.2110352E-1,1.4644534E-3,1.2387061E-1,9.0590216E-2,-4.2255666E-2,4.8679043E-2,2.3886889E-1,-2.658744E-3,-7.8792416E-2,6.9121685E-4,-1.1669054E-2,-4.7402433E-4,-9.1780145E-3,-7.3249945E-3,-8.328195E-3,-6.1374134E-3,2.6267574E-3,-7.301462E-3,-8.468228E-3,-1.1728508E-2,-4.8291455E-3,-3.2570716E-3,3.1168398E-3,-6.326595E-3,4.1132592E-4,1.1047729E-3,-8.015972E-3,-1.0113146E-3,8.222908E-4,1.7067076E-3,1.3916961E-2,4.220754E-5,1.2656986E-2,1.2972339E-2,3.9660055E-3,9.497084E-3,-4.7624125E-3,-8.168695E-3,-1.6575167E-3,4.356158E-3,1.6893048E-2,2.1879964E-3,3.0390522E-2,4.72116E-3,-6.232591E-3,-8.432309E-3,5.1859817E-3],"categories":[],"categories_nodes":[],"categories_segments":[],"categories_sizes":[],"default_left":[0,0,0,0,0,0,0,0,0,0,0,0,0,0,0,0,0,0,0,0,0,0,0,0,0,0,0,0,0,0,0,0,0,0,0,0,0,0,0,0,0,0,0,0,0,0,0,0,0,0,0,0,0,0,0,0,0,0,0,0,0,0,0,0,0,0,0,0,0,0,0,0,0,0,0,0,0,0,0,0,0,0,0,0,0,0,0,0,0,0,0],"id":4,"left_children":[1,3,5,7,9,11,13,15,17,19,21,23,-1,25,27,29,31,33,35,37,39,-1,41,43,45,47,-1,49,51,53,55,57,59,61,63,65,67,-1,69,-1,71,-1,-1,73,75,-1,77,79,81,83,85,87,89,-1,-1,-1,-1,-1,-1,-1,-1,-1,-1,-1,-1,-1,-1,-1,-1,-1,-1,-1,-1,-1,-1,-1,-1,-1,-1,-1,-1,-1,-1,-1,-1,-1,-1,-1,-1,-1,-1],"loss_changes":[5.060879E0,4.2731137E0,6.901846E-1,3.994721E0,9.473276E-2,2.461471E-1,5.456047E-1,3.4799511E0,3.737545E-2,8.661747E-3,6.563373E-2,2.257495E-1,0E0,4.855399E-1,4.378032E-1,3.5299168E0,3.797531E-2,3.927517E-2,9.556156E-3,2.8629303E-3,9.852495E-3,0E0,1.2054563E-2,2.283307E-1,8.158892E-3,4.3559885E-1,0E0,1.3873881E-1,9.377087E-2,3.313346E0,3.3464942E0,3.7989616E-3,1.1545479E-2,1.1695862E-2,2.8076768E-4,1.1385583E-2,8.411955E-3,0E0,1.0010928E-2,0E0,3.9380137E-4,0E0,0E0,1.89504E-1,1.5119374E-2,0E0,6.683916E-3,4.4469547E-1,2.4974007E-2,1.03409946E-1,4.979922E-2,9.81624E-2,2.89412E-2,0E0,0E0,0E0,0E0,0E0,0E0,0E0,0E0,0E0,0E0,0E0,0E0,0E0,0E0,0E0,0E0,0E0,0E0,0E0,0E0,0E0,0E0,0E0,0E0,0E0,0E0,0E0,0E0,0E0,0E0,0E0,0E0,0E0,0E0,0E0,0E0,0E0,0E0],"parents":[2147483647,0,0,1,1,2,2,3,3,4,4,5,5,6,6,7,7,8,8,9,9,10,10,11,11,13,13,14,14,15,15,16,16,17,17,18,18,19,19,20,20,22,22,23,23,24,24,25,25,27,27,28,28,29,29,30,30,31,31,32,32,33,33,34,34,35,35,36,36,38,38,40,40,43,43,44,44,46,46,47,47,48,48,49,49,50,50,51,51,52,52],"right_children":[2,4,6,8,10,12,14,16,18,20,22,24,-1,26,28,30,32,34,36,38,40,-1,42,44,46,48,-1,50,52,54,56,58,60,62,64,66,68,-1,70,-1,72,-1,-1,74,76,-1,78,80,82,84,86,88,90,-1,-1,-1,-1,-1,-1,-1,-1,-1,-1,-1,-1,-1,-1,-1,-1,-1,-1,-1,-1,-1,-1,-1,-1,-1,-1,-1,-1,-1,-1,-1,-1,-1,-1,-1,-1,-1,-1],"split_conditions":[1E0,1E0,4E-1,1E0,3.781609E-1,1E0,5E-1,1E0,1E0,3.2204074E-1,-2.3971608E-2,1E0,2.7588684E-2,1E0,1E0,5E-1,4E-1,1E0,1.00989945E-1,1E0,1.2171612E-1,1.8429697E-2,4.7684255E-1,1E0,-1.3191879E-1,1E0,-8.597232E-3,1E0,1.1271517E-1,1E0,1E0,1.4889927E-1,4.7684255E-1,6.0048576E-2,1E0,7.095557E-2,1.0540926E-1,-9.376402E-3,3E-1,-7.0858374E-3,1.764665E-1,-7.1486062E-3,1.4384892E-3,1E0,-2.073102E-1,1.4644534E-3,2.7277237E-1,1E0,4.2227665E-3,1E0,-1.539461E-2,1.4516428E-2,1E0,6.9121685E-4,-1.1669054E-2,-4.7402433E-4,-9.1780145E-3,-7.3249945E-3,-8.328195E-3,-6.1374134E-3,2.6267574E-3,-7.301462E-3,-8.468228E-3,-1.1728508E-2,-4.8291455E-3,-3.2570716E-3,3.1168398E-3,-6.326595E-3,4.1132592E-4,1.1047729E-3,-8.015972E-3,-1.0113146E-3,8.222908E-4,1.7067076E-3,1.3916961E-2,4.220754E-5,1.2656986E-2,1.2972339E-2,3.9660055E-3,9.497084E-3,-4.7624125E-3,-8.168695E-3,-1.6575167E-3,4.356158E-3,1.6893048E-2,2.1879964E-3,3.0390522E-2,4.72116E-3,-6.232591E-3,-8.432309E-3,5.1859817E-3],"split_indices":[10,103,8,71,1,28,8,81,12,2,2,64,0,103,15,8,8,17,2,14,1,0,1,73,1,71,0,93,2,24,15,2,1,1,16,2,1,0,8,0,1,0,0,20,2,0,1,81,1,44,1,1,38,0,0,0,0,0,0,0,0,0,0,0,0,0,0,0,0,0,0,0,0,0,0,0,0,0,0,0,0,0,0,0,0,0,0,0,0,0,0],"split_type":[0,0,0,0,0,0,0,0,0,0,0,0,0,0,0,0,0,0,0,0,0,0,0,0,0,0,0,0,0,0,0,0,0,0,0,0,0,0,0,0,0,0,0,0,0,0,0,0,0,0,0,0,0,0,0,0,0,0,0,0,0,0,0,0,0,0,0,0,0,0,0,0,0,0,0,0,0,0,0,0,0,0,0,0,0,0,0,0,0,0,0],"sum_hessian":[2.8035E4,2.6334E4,1.701E3,2.578E4,5.54E2,6.88E2,1.013E3,2.5095E4,6.85E2,5.48E2,6E0,6.85E2,3E0,7.67E2,2.46E2,2.4432E4,6.63E2,6.58E2,2.7E1,5.37E2,1.1E1,1E0,5E0,6.61E2,2.4E1,7.51E2,1.6E1,1.82E2,6.4E1,2.2598E4,1.834E3,4.04E2,2.59E2,6.26E2,3.2E1,1.2E1,1.5E1,4.86E2,5.1E1,8E0,3E0,2E0,3E0,6.39E2,2.2E1,1E0,2.3E1,7.26E2,2.5E1,1.79E2,3E0,3.1E1,3.3E1,2.238E4,2.18E2,1.094E3,7.4E2,2.44E2,1.6E2,2.58E2,1E0,4.46E2,1.8E2,3E1,2E0,9E0,3E0,1.3E1,2E0,1E0,5E1,2E0,1E0,6.27E2,1.2E1,1E0,2.1E1,2.1E1,2E0,7.04E2,2.2E1,9E0,1.6E1,1.73E2,6E0,1E0,2E0,1.7E1,1.4E1,3.2E1,1E0],"tree_param":{"num_deleted":"0","num_feature":"157","num_nodes":"91","size_leaf_vector":"1"}},{"base_weights":[5.120439E-4,-1.6538899E-3,7.712251E-2,-3.1936308E-3,9.012519E-2,8.123456E-2,-6.6471784E-3,-5.1491167E-3,7.1764655E-2,8.240757E-2,1.5611455E-1,7.672022E-2,1.3674457E-1,1.6911315E-2,-2.985582E-2,-6.448988E-3,1.0875909E-1,7.479502E-2,2.499265E-2,7.842685E-2,1.5915118E-1,1.8785438E-2,1.011235E-1,7.8000866E-2,-2.771008E-2,-5.849578E-4,1.395454E-1,3.1204946E-2,-6.972304E-3,-3.7919298E-2,3.0577183E-4,-7.5671137E-3,1.1922134E-1,1.1235274E-1,5.763833E-3,9.04107E-2,6.1515436E-2,-1.4346207E-3,2.2612683E-1,8.220733E-2,1.1968617E-2,7.286668E-4,1.671833E-1,1.21391214E-1,3.6978237E-2,8.14031E-2,4.1157193E-2,4.378366E-2,-7.075423E-3,1.1185562E-1,1.5860397E-1,-3.3138085E-2,4.1993223E-2,-4.0580067E-3,-3.3427776E-5,-1.3833649E-2,2.843173E-3,-9.04533E-4,8.783686E-3,1.22519545E-2,-9.610819E-3,1.0564309E-2,2.0072764E-2,7.4974457E-3,-6.4407424E-3,8.0739595E-3,1.7871192E-2,6.5054307E-3,-7.1746047E-4,-7.07002E-3,1.5926607E-3,4.393823E-3,3.3293985E-2,8.620979E-3,2.416543E-3,-1.464838E-3,3.9917286E-3,1.716433E-2,4.56815E-3,-1.5138686E-4,1.309619E-2,7.6518E-3,-2.806753E-3,5.116215E-4,8.316872E-3,3.3506025E-3,1.1708861E-2,6.6961283E-3,-1.2874596E-3,4.009679E-5,1.1648286E-2,1.7493652E-2,1.0287203E-2,-1.0084481E-3,-3.962265E-3,4.9627633E-3,-3.2444247E-3,3.5749303E-4,-2.0828152E-3],"categories":[],"categories_nodes":[],"categories_segments":[],"categories_sizes":[],"default_left":[0,0,0,0,0,0,0,0,0,0,0,0,0,0,0,0,0,0,0,0,0,0,0,0,0,0,0,0,0,0,0,0,0,0,0,0,0,0,0,0,0,0,0,0,0,0,0,0,0,0,0,0,0,0,0,0,0,0,0,0,0,0,0,0,0,0,0,0,0,0,0,0,0,0,0,0,0,0,0,0,0,0,0,0,0,0,0,0,0,0,0,0,0,0,0,0,0,0,0],"id":5,"left_children":[1,3,5,7,9,11,13,15,17,19,21,23,25,27,29,31,33,35,37,39,41,-1,43,45,47,-1,49,51,-1,53,55,57,59,61,63,65,67,69,71,73,75,-1,77,79,81,83,85,87,-1,89,91,93,95,-1,-1,97,-1,-1,-1,-1,-1,-1,-1,-1,-1,-1,-1,-1,-1,-1,-1,-1,-1,-1,-1,-1,-1,-1,-1,-1,-1,-1,-1,-1,-1,-1,-1,-1,-1,-1,-1,-1,-1,-1,-1,-1,-1,-1,-1],"loss_changes":[4.6530604E0,3.8541167E0,2.6612282E-1,3.931935E0,2.1631145E-1,1.7369318E-1,2.0735046E-2,3.8712947E0,9.479499E-2,1.1124325E-1,6.129217E-2,9.3370914E-2,2.2382855E-2,2.5703775E-2,4.6325326E-3,3.6327991E0,1.08540535E-1,1.2715507E-1,2.2888777E-1,9.6247435E-2,2.1957815E-2,0E0,2.021265E-2,8.113623E-2,3.0794363E-2,0E0,1.0228753E-2,1.319213E-2,0E0,1.48651E-3,2.3817383E-3,3.613923E0,1.7370105E-1,1.4778924E-1,5.8251467E-2,2.3493028E-1,8.5303426E-2,4.8024893E-2,8.267176E-2,8.294225E-2,1.6950734E-2,0E0,1.9133091E-3,1.6666278E-2,1.7579038E-2,8.254528E-2,3.0353703E-2,6.114913E-3,0E0,1.284647E-2,8.401036E-3,4.890375E-5,1.0134421E-2,0E0,0E0,5.6151673E-4,0E0,0E0,0E0,0E0,0E0,0E0,0E0,0E0,0E0,0E0,0E0,0E0,0E0,0E0,0E0,0E0,0E0,0E0,0E0,0E0,0E0,0E0,0E0,0E0,0E0,0E0,0E0,0E0,0E0,0E0,0E0,0E0,0E0,0E0,0E0,0E0,0E0,0E0,0E0,0E0,0E0,0E0,0E0],"parents":[2147483647,0,0,1,1,2,2,3,3,4,4,5,5,6,6,7,7,8,8,9,9,10,10,11,11,12,12,13,13,14,14,15,15,16,16,17,17,18,18,19,19,20,20,22,22,23,23,24,24,26,26,27,27,29,29,30,30,31,31,32,32,33,33,34,34,35,35,36,36,37,37,38,38,39,39,40,40,42,42,43,43,44,44,45,45,46,46,47,47,49,49,50,50,51,51,52,52,55,55],"right_children":[2,4,6,8,10,12,14,16,18,20,22,24,26,28,30,32,34,36,38,40,42,-1,44,46,48,-1,50,52,-1,54,56,58,60,62,64,66,68,70,72,74,76,-1,78,80,82,84,86,88,-1,90,92,94,96,-1,-1,98,-1,-1,-1,-1,-1,-1,-1,-1,-1,-1,-1,-1,-1,-1,-1,-1,-1,-1,-1,-1,-1,-1,-1,-1,-1,-1,-1,-1,-1,-1,-1,-1,-1,-1,-1,-1,-1,-1,-1,-1,-1,-1,-1],"split_conditions":[1E0,1E0,1E0,1E0,1E0,1E0,1.2003101E-2,1E0,1E0,1E0,7.778548E-3,1E0,-2.2755754E-1,1.3784148E-1,1.4889927E-1,1E0,2.9608425E-1,1.6866853E-2,1E0,1E0,-1.6908793E-1,1.8785438E-2,6.539295E-2,1E0,-7.8567415E-2,-5.849578E-4,4E-1,-7.8567415E-2,-6.972304E-3,1E0,1.6950381E-1,1E0,6E-1,1E0,5.3118266E-2,4.2227665E-3,1E0,4.3131568E-2,1.5541439E-1,5E-1,-5.881298E-3,7.286668E-4,5E-1,9.523915E-3,7.8567415E-2,-1.9290474E-1,1E0,5.8842696E-2,-7.075423E-3,-2.073102E-1,5E-1,-6.783301E-2,5E-1,-4.0580067E-3,-3.3427776E-5,4E-1,2.843173E-3,-9.04533E-4,8.783686E-3,1.22519545E-2,-9.610819E-3,1.0564309E-2,2.0072764E-2,7.4974457E-3,-6.4407424E-3,8.0739595E-3,1.7871192E-2,6.5054307E-3,-7.1746047E-4,-7.07002E-3,1.5926607E-3,4.393823E-3,3.3293985E-2,8.620979E-3,2.416543E-3,-1.464838E-3,3.9917286E-3,1.716433E-2,4.56815E-3,-1.5138686E-4,1.309619E-2,7.6518E-3,-2.806753E-3,5.116215E-4,8.316872E-3,3.3506025E-3,1.1708861E-2,6.6961283E-3,-1.2874596E-3,4.009679E-5,1.1648286E-2,1.7493652E-2,1.0287203E-2,-1.0084481E-3,-3.962265E-3,4.9627633E-3,-3.2444247E-3,3.5749303E-4,-2.0828152E-3],"split_indices":[73,44,17,64,10,10,2,138,11,16,1,13,1,1,2,57,1,1,14,17,1,0,2,14,1,0,8,1,0,14,1,106,8,15,2,1,17,2,1,8,1,0,8,1,1,2,11,2,0,2,8,2,8,0,0,8,0,0,0,0,0,0,0,0,0,0,0,0,0,0,0,0,0,0,0,0,0,0,0,0,0,0,0,0,0,0,0,0,0,0,0,0,0,0,0,0,0,0,0],"split_type":[0,0,0,0,0,0,0,0,0,0,0,0,0,0,0,0,0,0,0,0,0,0,0,0,0,0,0,0,0,0,0,0,0,0,0,0,0,0,0,0,0,0,0,0,0,0,0,0,0,0,0,0,0,0,0,0,0,0,0,0,0,0,0,0,0,0,0,0,0,0,0,0,0,0,0,0,0,0,0,0,0,0,0,0,0,0,0,0,0,0,0,0,0,0,0,0,0,0,0],"sum_hessian":[2.804E4,2.727E4,7.7E2,2.6821E4,4.49E2,7.34E2,3.6E1,2.614E4,6.81E2,4.04E2,4.5E1,6.81E2,5.3E1,1.8E1,1.8E1,2.5846E4,2.94E2,6.39E2,4.2E1,3.86E2,1.8E1,2.7E1,1.8E1,6.73E2,8E0,1E0,5.2E1,1.6E1,2E0,1.4E1,4E0,2.5619E4,2.27E2,2.84E2,1E1,2.91E2,3.48E2,3.8E1,4E0,3.65E2,2.1E1,1E0,1.7E1,1.3E1,5E0,6.15E2,5.8E1,3E0,5E0,2.4E1,2.8E1,2E0,1.4E1,1.3E1,1E0,3E0,1E0,2.5229E4,3.9E2,2.24E2,3E0,2.66E2,1.8E1,5E0,5E0,2.64E2,2.7E1,3.31E2,1.7E1,7E0,3.1E1,2E0,2E0,3.41E2,2.4E1,1.1E1,1E1,1.6E1,1E0,1E0,1.2E1,3E0,2E0,1.4E1,6.01E2,5.4E1,4E0,2E0,1E0,1E0,2.3E1,2E1,8E0,1E0,1E0,1.3E1,1E0,1E0,2E0],"tree_param":{"num_deleted":"0","num_feature":"157","num_nodes":"99","size_leaf_vector":"1"}},{"base_weights":[5.2968986E-5,2.7463892E-3,-5.047002E-2,4.5357132E-3,-7.958945E-2,-5.680785E-2,3.6623724E-2,6.438004E-3,-6.666258E-2,-8.0922365E-2,3.8604148E-2,-5.9190925E-2,5.9948526E-2,-1.961489E-3,7.293305E-2,3.3861129E-3,5.2036185E-2,-7.186195E-2,-5.8950707E-2,-8.225045E-2,-6.536661E-2,1.755344E-2,-1.347329E-2,-5.977327E-2,3.4834486E-2,-5.5518653E-2,8.8714644E-2,-2.6700383E-2,3.400798E-2,7.7531196E-2,-7.6187975E-3,5.228311E-3,-6.398731E-2,2.6339516E-2,6.9564596E-2,-7.360723E-2,-3.2898694E-2,-5.383347E-2,-8.2455866E-2,-8.461545E-3,-7.665311E-3,1.4637068E-3,-6.7338295E-2,-6.221305E-3,2.6449855E-2,-6.549912E-2,-2.2160092E-2,4.5517608E-4,-6.844309E-3,1.3364866E-2,1.6284943E-1,-3.3284172E-2,7.882287E-3,-2.34877E-2,5.4739058E-2,8.201326E-2,-6.8803923E-3,6.307414E-4,-1.0063837E-2,-6.8478184E-3,-5.6907968E-3,2.4181923E-3,1.7684175E-2,8.248645E-3,3.1996758E-3,-7.529329E-3,-4.2518103E-3,-5.779827E-3,1.8043191E-3,4.993429E-3,-5.449885E-3,-6.84433E-3,-9.721282E-3,1.0947607E-3,-6.923688E-3,7.2404894E-4,3.0439482E-3,-6.038696E-3,-1.05954185E-2,-2.7928017E-3,7.4649886E-3,2.2700459E-2,-5.2063535E-3,1.8165218E-2,-1.2588963E-3,-8.0195395E-4,-5.797598E-3,2.7207679E-3,-5.563731E-3,6.256759E-3,-2.7430241E-3,8.617254E-3,-5.6736427E-3],"categories":[],"categories_nodes":[],"categories_segments":[],"categories_sizes":[],"default_left":[0,0,0,0,0,0,0,0,0,0,0,0,0,0,0,0,0,0,0,0,0,0,0,0,0,0,0,0,0,0,0,0,0,0,0,0,0,0,0,0,0,0,0,0,0,0,0,0,0,0,0,0,0,0,0,0,0,0,0,0,0,0,0,0,0,0,0,0,0,0,0,0,0,0,0,0,0,0,0,0,0,0,0,0,0,0,0,0,0,0,0,0,0],"id":6,"left_children":[1,3,5,7,9,11,13,15,17,19,21,23,25,27,29,31,33,35,37,39,41,-1,43,45,-1,47,49,51,53,55,-1,57,59,61,63,65,67,69,71,-1,-1,-1,73,-1,75,77,79,-1,-1,81,83,85,-1,87,89,91,-1,-1,-1,-1,-1,-1,-1,-1,-1,-1,-1,-1,-1,-1,-1,-1,-1,-1,-1,-1,-1,-1,-1,-1,-1,-1,-1,-1,-1,-1,-1,-1,-1,-1,-1,-1,-1],"loss_changes":[3.8205748E0,3.927322E0,7.8645134E-1,3.533919E0,9.245038E-2,3.7221575E-1,1.3604037E-1,3.5360355E0,2.2989511E-2,6.213665E-3,5.2281857E-2,3.2910728E-1,9.460696E-2,4.3620583E-2,4.0190935E-2,2.9565098E0,7.161403E-1,2.484703E-2,2.911961E-2,3.0469894E-4,8.714974E-3,0E0,1.3320594E-2,2.7809572E-1,0E0,4.9697924E-3,1.2071642E-1,2.2771098E-2,2.5124643E-2,3.778112E-2,0E0,2.649314E0,1.6259432E-2,2.0614386E-1,4.5707798E-1,1.687479E-2,2.5143063E-2,1.873976E-2,3.2720268E-3,0E0,0E0,0E0,7.892355E-3,0E0,8.615595E-5,2.2647285E-1,9.868676E-2,0E0,0E0,1.7955592E-1,3.857276E-2,1.7002283E-2,0E0,1.1292782E-2,1.136522E-2,3.2589823E-2,0E0,0E0,0E0,0E0,0E0,0E0,0E0,0E0,0E0,0E0,0E0,0E0,0E0,0E0,0E0,0E0,0E0,0E0,0E0,0E0,0E0,0E0,0E0,0E0,0E0,0E0,0E0,0E0,0E0,0E0,0E0,0E0,0E0,0E0,0E0,0E0,0E0],"parents":[2147483647,0,0,1,1,2,2,3,3,4,4,5,5,6,6,7,7,8,8,9,9,10,10,11,11,12,12,13,13,14,14,15,15,16,16,17,17,18,18,19,19,20,20,22,22,23,23,25,25,26,26,27,27,28,28,29,29,31,31,32,32,33,33,34,34,35,35,36,36,37,37,38,38,42,42,44,44,45,45,46,46,49,49,50,50,51,51,53,53,54,54,55,55],"right_children":[2,4,6,8,10,12,14,16,18,20,22,24,26,28,30,32,34,36,38,40,42,-1,44,46,-1,48,50,52,54,56,-1,58,60,62,64,66,68,70,72,-1,-1,-1,74,-1,76,78,80,-1,-1,82,84,86,-1,88,90,92,-1,-1,-1,-1,-1,-1,-1,-1,-1,-1,-1,-1,-1,-1,-1,-1,-1,-1,-1,-1,-1,-1,-1,-1,-1,-1,-1,-1,-1,-1,-1,-1,-1,-1,-1,-1,-1],"split_conditions":[1E0,1E0,1E0,1E0,3.781609E-1,1E0,4E-1,1E0,4E-1,1E0,-2.3971608E-2,1E0,3.104944E-2,3.8440485E-2,1E0,1E0,4E-1,1E0,5E-1,1.260582E-1,-1.7513447E-1,1.755344E-2,4.7684255E-1,2.8970224E-1,3.4834486E-2,-1.3395996E-1,5.254044E-2,1E0,1E0,1E0,-7.6187975E-3,1E0,4E-1,1E0,5E-1,1E0,2.0449635E-1,-3.9902958E-1,1E0,-8.461545E-3,-7.665311E-3,1.4637068E-3,3E-1,-6.221305E-3,1E0,5E-1,1E0,4.5517608E-4,-6.844309E-3,-2.1809323E-1,5E-1,-3.8260806E-2,7.882287E-3,6.0195003E-2,1E0,1E0,-6.8803923E-3,6.307414E-4,-1.0063837E-2,-6.8478184E-3,-5.6907968E-3,2.4181923E-3,1.7684175E-2,8.248645E-3,3.1996758E-3,-7.529329E-3,-4.2518103E-3,-5.779827E-3,1.8043191E-3,4.993429E-3,-5.449885E-3,-6.84433E-3,-9.721282E-3,1.0947607E-3,-6.923688E-3,7.2404894E-4,3.0439482E-3,-6.038696E-3,-1.05954185E-2,-2.7928017E-3,7.4649886E-3,2.2700459E-2,-5.2063535E-3,1.8165218E-2,-1.2588963E-3,-8.0195395E-4,-5.797598E-3,2.7207679E-3,-5.563731E-3,6.256759E-3,-2.7430241E-3,8.617254E-3,-5.6736427E-3],"split_indices":[17,103,16,71,1,82,8,10,8,14,2,116,2,1,97,81,8,15,8,2,1,0,1,2,0,2,1,108,4,102,0,24,8,57,8,16,2,1,15,0,0,0,8,0,14,8,64,0,0,1,8,1,0,2,55,132,0,0,0,0,0,0,0,0,0,0,0,0,0,0,0,0,0,0,0,0,0,0,0,0,0,0,0,0,0,0,0,0,0,0,0,0,0],"split_type":[0,0,0,0,0,0,0,0,0,0,0,0,0,0,0,0,0,0,0,0,0,0,0,0,0,0,0,0,0,0,0,0,0,0,0,0,0,0,0,0,0,0,0,0,0,0,0,0,0,0,0,0,0,0,0,0,0,0,0,0,0,0,0,0,0,0,0,0,0,0,0,0,0,0,0,0,0,0,0,0,0,0,0,0,0,0,0,0,0,0,0,0,0],"sum_hessian":[2.8074E4,2.6654E4,1.42E3,2.6088E4,5.66E2,1.324E3,9.6E1,2.541E4,6.78E2,5.6E2,6E0,1.298E3,2.6E1,4.7E1,4.9E1,2.3817E4,1.593E3,4E2,2.78E2,5.12E2,4.8E1,1E0,5E0,1.297E3,1E0,5E0,2.1E1,2.8E1,1.9E1,4.8E1,1E0,2.3184E4,6.33E2,6.47E2,9.46E2,3.82E2,1.8E1,2.31E2,4.7E1,3.5E2,1.62E2,1E0,4.7E1,2E0,3E0,1.125E3,1.72E2,1E0,4E0,1.1E1,1E1,2.7E1,1E0,5E0,1.4E1,4.7E1,1E0,2.2951E4,2.33E2,3.82E2,2.51E2,6.39E2,8E0,7.03E2,2.43E2,3.61E2,2.1E1,1.2E1,6E0,1E0,2.3E2,2.7E1,2E1,1E0,4.6E1,1E0,2E0,1.001E3,1.24E2,1.63E2,9E0,2E0,9E0,9E0,1E0,1.4E1,1.3E1,2E0,3E0,1.3E1,1E0,4.6E1,1E0],"tree_param":{"num_deleted":"0","num_feature":"157","num_nodes":"93","size_leaf_vector":"1"}},{"base_weights":[-3.754658E-5,-1.0104344E-3,1.2098726E-1,-2.8422973E-3,6.3886724E-2,1.5674129E-1,8.317691E-2,-4.3121013E-3,7.816714E-2,5.9146028E-2,1.3346867E-1,3.6715467E-2,1.6306944E-1,1.2917653E-2,9.574595E-2,-6.054465E-3,6.380403E-2,6.432493E-2,9.726752E-2,6.168521E-2,7.833344E-3,6.6404543E-3,1.3883857E-1,9.8208085E-2,-3.3956025E-2,1.6559651E-1,-5.366327E-3,5.4217234E-2,-5.9727006E-2,2.311837E-2,1.1034753E-1,-7.1813525E-3,1.00776844E-1,6.767676E-2,3.3066822E-3,-4.9540284E-3,6.613497E-2,1.1060751E-1,3.514952E-2,6.4460866E-2,3.228034E-2,2.5083788E-2,-1.4219295E-2,-9.681419E-4,1.96421E-3,1.4451066E-1,9.368594E-4,1.1555982E-2,2.3076453E-3,-6.50314E-3,-1.9204319E-3,2.777441E-2,1.7067917E-1,1.209926E-2,5.705472E-3,-1.2524929E-2,-9.199734E-3,1.0095803E-1,-7.7070996E-2,1.1654307E-1,-8.338865E-3,-8.5319503E-4,7.778643E-3,6.4684316E-3,1.2357153E-2,5.1626414E-3,8.286087E-3,-1.4204716E-3,1.07823955E-2,7.0200386E-3,1.5452614E-3,8.034094E-3,1.3747634E-2,7.4773915E-3,-2.1530872E-3,6.6814213E-3,3.1920949E-3,2.5512157E-3,6.8550706E-3,3.3609476E-3,-3.443161E-3,-2.107733E-3,4.4325604E-3,1.53693585E-2,6.073648E-3,3.310427E-4,-6.191075E-4,-3.6586765E-3,5.30114E-3,2.7575511E-2,1.6476935E-2,-6.4287633E-3,2.4888436E-3,-9.107715E-3,4.40182E-3,4.58953E-3,2.1413928E-2,-4.6051284E-3,-1.13420095E-2,1.2872296E-2,4.761565E-3],"categories":[],"categories_nodes":[],"categories_segments":[],"categories_sizes":[],"default_left":[0,0,0,0,0,0,0,0,0,0,0,0,0,0,0,0,0,0,0,0,0,0,0,0,0,0,0,0,0,0,0,0,0,0,0,0,0,0,0,0,0,0,0,0,0,0,0,0,0,0,0,0,0,0,0,0,0,0,0,0,0,0,0,0,0,0,0,0,0,0,0,0,0,0,0,0,0,0,0,0,0,0,0,0,0,0,0,0,0,0,0,0,0,0,0,0,0,0,0,0,0],"id":7,"left_children":[1,3,5,7,9,11,13,15,17,19,21,23,25,27,29,31,33,35,37,39,41,43,45,47,49,51,-1,53,55,57,59,61,63,65,67,-1,69,71,73,75,77,79,81,-1,-1,83,-1,-1,-1,-1,85,87,89,-1,91,93,-1,95,97,99,-1,-1,-1,-1,-1,-1,-1,-1,-1,-1,-1,-1,-1,-1,-1,-1,-1,-1,-1,-1,-1,-1,-1,-1,-1,-1,-1,-1,-1,-1,-1,-1,-1,-1,-1,-1,-1,-1,-1,-1,-1],"loss_changes":[3.3073032E0,3.3128479E0,2.8978205E-1,3.227199E0,2.4445415E-1,8.06005E-2,9.678638E-2,3.159611E0,1.21444225E-1,9.3066454E-2,3.176874E-2,3.3755183E-2,6.803799E-2,5.7241723E-2,9.7133815E-2,3.125485E0,1.5534472E-1,6.160271E-2,1.6267157E-1,5.3745985E-2,1.3671298E-2,8.26797E-4,3.2426834E-2,2.5479458E-3,3.8571842E-3,7.021308E-2,0E0,3.8182374E-2,9.510327E-3,1.4035892E-1,1.0334182E-1,2.9483197E0,2.1496344E-1,1.4779758E-1,7.657159E-2,0E0,5.640173E-2,1.2313771E-1,8.470921E-2,4.5651674E-2,1.3225675E-2,1.1305425E-2,7.3583117E-3,0E0,0E0,2.451408E-2,0E0,0E0,0E0,0E0,8.751249E-5,1.0060925E-2,1.8525124E-2,0E0,1.234142E-2,2.1775406E-2,0E0,5.2492686E-2,3.7971698E-3,5.7674885E-2,0E0,0E0,0E0,0E0,0E0,0E0,0E0,0E0,0E0,0E0,0E0,0E0,0E0,0E0,0E0,0E0,0E0,0E0,0E0,0E0,0E0,0E0,0E0,0E0,0E0,0E0,0E0,0E0,0E0,0E0,0E0,0E0,0E0,0E0,0E0,0E0,0E0,0E0,0E0,0E0,0E0],"parents":[2147483647,0,0,1,1,2,2,3,3,4,4,5,5,6,6,7,7,8,8,9,9,10,10,11,11,12,12,13,13,14,14,15,15,16,16,17,17,18,18,19,19,20,20,21,21,22,22,23,23,24,24,25,25,27,27,28,28,29,29,30,30,31,31,32,32,33,33,34,34,36,36,37,37,38,38,39,39,40,40,41,41,42,42,45,45,50,50,51,51,52,52,54,54,55,55,57,57,58,58,59,59],"right_children":[2,4,6,8,10,12,14,16,18,20,22,24,26,28,30,32,34,36,38,40,42,44,46,48,50,52,-1,54,56,58,60,62,64,66,68,-1,70,72,74,76,78,80,82,-1,-1,84,-1,-1,-1,-1,86,88,90,-1,92,94,-1,96,98,100,-1,-1,-1,-1,-1,-1,-1,-1,-1,-1,-1,-1,-1,-1,-1,-1,-1,-1,-1,-1,-1,-1,-1,-1,-1,-1,-1,-1,-1,-1,-1,-1,-1,-1,-1,-1,-1,-1,-1,-1,-1],"split_conditions":[1E0,1E0,9.951389E-2,1E0,1E0,-1.5861031E-1,-5.859364E-2,1E0,4E-1,1E0,-2.2755754E-1,4.4594884E-2,6E-1,4E-1,1.260582E-1,1E0,5E-1,2E-1,5E-1,1E0,1.2003101E-2,-5.058458E-2,2.7185014E-1,-2.522071E-1,-2.0777088E-1,2E-1,-5.366327E-3,2.0449635E-1,-1.5861031E-1,6.8041384E-2,6E-1,1E0,-1.1033991E-2,1.1271517E-1,1E0,-4.9540284E-3,1E0,-9.938845E-3,1E0,5E-1,1.8716447E-1,5E-1,5E-1,-9.681419E-4,1.96421E-3,1.3784148E-1,9.368594E-4,1.1555982E-2,2.3076453E-3,-6.50314E-3,-1.9325812E-1,-1.5147918E-1,-1.38272E-1,1.209926E-2,3E-1,1.2856103E-1,-9.199734E-3,3.982376E-2,4E-1,1E0,-8.338865E-3,-8.5319503E-4,7.778643E-3,6.4684316E-3,1.2357153E-2,5.1626414E-3,8.286087E-3,-1.4204716E-3,1.07823955E-2,7.0200386E-3,1.5452614E-3,8.034094E-3,1.3747634E-2,7.4773915E-3,-2.1530872E-3,6.6814213E-3,3.1920949E-3,2.5512157E-3,6.8550706E-3,3.3609476E-3,-3.443161E-3,-2.107733E-3,4.4325604E-3,1.53693585E-2,6.073648E-3,3.310427E-4,-6.191075E-4,-3.6586765E-3,5.30114E-3,2.7575511E-2,1.6476935E-2,-6.4287633E-3,2.4888436E-3,-9.107715E-3,4.40182E-3,4.58953E-3,2.1413928E-2,-4.6051284E-3,-1.13420095E-2,1.2872296E-2,4.761565E-3],"split_indices":[57,73,2,44,10,1,1,64,8,17,1,2,8,8,2,20,8,8,8,14,2,2,2,1,1,8,0,2,1,1,8,106,1,2,10,0,14,1,15,8,2,8,8,0,0,1,0,0,0,0,1,2,1,0,8,2,0,1,8,11,0,0,0,0,0,0,0,0,0,0,0,0,0,0,0,0,0,0,0,0,0,0,0,0,0,0,0,0,0,0,0,0,0,0,0,0,0,0,0,0,0],"split_type":[0,0,0,0,0,0,0,0,0,0,0,0,0,0,0,0,0,0,0,0,0,0,0,0,0,0,0,0,0,0,0,0,0,0,0,0,0,0,0,0,0,0,0,0,0,0,0,0,0,0,0,0,0,0,0,0,0,0,0,0,0,0,0,0,0,0,0,0,0,0,0,0,0,0,0,0,0,0,0,0,0,0,0,0,0,0,0,0,0,0,0,0,0,0,0,0,0,0,0,0,0],"sum_hessian":[2.8087E4,2.7864E4,2.23E2,2.71E4,7.64E2,1.13E2,1.1E2,2.6618E4,4.82E2,7.17E2,4.7E1,6E0,1.07E2,1.7E1,9.3E1,2.5955E4,6.63E2,2.82E2,2E2,6.83E2,3.4E1,2E0,4.5E1,3E0,3E0,1.06E2,1E0,1.1E1,6E0,1.6E1,7.7E1,2.5685E4,2.7E2,6.23E2,4E1,4E0,2.78E2,1.64E2,3.6E1,6.23E2,6E1,1.9E1,1.5E1,1E0,1E0,4.3E1,2E0,2E0,1E0,1E0,2E0,4E0,1.02E2,4E0,7E0,3E0,3E0,9E0,7E0,7.5E1,2E0,2.5284E4,4.01E2,1.06E2,1.64E2,3.05E2,3.18E2,3.5E1,5E0,2.57E2,2.1E1,7.9E1,8.5E1,2.1E1,1.5E1,5.8E2,4.3E1,5.2E1,8E0,1.7E1,2E0,1.4E1,1E0,3.8E1,5E0,1E0,1E0,1E0,3E0,3E0,9.9E1,1E0,6E0,1E0,2E0,7E0,2E0,5E0,2E0,6.3E1,1.2E1],"tree_param":{"num_deleted":"0","num_feature":"157","num_nodes":"101","size_leaf_vector":"1"}},{"base_weights":[3.5379114E-4,1.799023E-3,-7.12965E-2,4.131585E-3,-4.2924557E-2,-7.249166E-2,1.9484414E-2,4.94941E-3,-1.2089002E-1,-4.8489265E-2,3.545306E-2,-7.261837E-2,-1.5903935E-4,1.6718425E-2,-2.5499027E-2,6.625769E-3,-5.772205E-2,-1.2514831E-1,-5.9836224E-2,-4.9047943E-2,3.313542E-2,-1.5782949E-3,7.3342405E-2,-7.5465366E-2,-6.772711E-2,-7.0010065E-3,2.5386766E-2,8.303753E-3,-5.9871253E-2,-6.340393E-2,-4.9237147E-2,-1.04545504E-1,-1.3102196E-2,-6.742553E-2,-1.2063369E-2,-5.3401355E-2,-1.1088665E-3,-1.489021E-2,3.4382883E-2,7.796096E-2,-6.4937132E-3,-1.1276965E-3,-7.5622844E-3,-7.067688E-2,-6.01757E-2,2.9717451E-2,6.1973557E-4,1.0141556E-3,-5.6883995E-3,-5.6804433E-3,-9.710498E-3,-6.49008E-3,-2.7864992E-3,-4.5320536E-3,-6.562767E-3,-1.1380511E-2,-6.97879E-3,-7.5523527E-3,-3.4373149E-3,-1.7262548E-4,-1.6368799E-3,-6.4477283E-3,-3.78036E-3,-5.401682E-4,1.4950928E-2,-1.975806E-3,7.530832E-3,4.7877706E-3,-6.377747E-3,8.229779E-3,-5.4261307E-3,-4.1071284E-3,-7.1435436E-3,-6.234178E-3,-2.8124575E-3,7.305063E-4,3.7271113E-3],"categories":[],"categories_nodes":[],"categories_segments":[],"categories_sizes":[],"default_left":[0,0,0,0,0,0,0,0,0,0,0,0,0,0,0,0,0,0,0,0,0,0,0,0,0,0,0,0,0,0,0,0,0,0,0,0,0,0,0,0,0,0,0,0,0,0,0,0,0,0,0,0,0,0,0,0,0,0,0,0,0,0,0,0,0,0,0,0,0,0,0,0,0,0,0,0,0],"id":8,"left_children":[1,3,5,7,9,11,13,15,17,19,21,23,-1,-1,25,27,29,31,33,35,-1,37,39,41,43,-1,45,47,49,51,53,55,-1,57,59,61,63,65,67,69,-1,-1,-1,71,73,75,-1,-1,-1,-1,-1,-1,-1,-1,-1,-1,-1,-1,-1,-1,-1,-1,-1,-1,-1,-1,-1,-1,-1,-1,-1,-1,-1,-1,-1,-1,-1],"loss_changes":[2.9067092E0,2.8705566E0,6.1629057E-2,2.67453E0,5.9662557E-1,4.8077106E-3,5.741541E-2,2.7301538E0,3.670883E-2,2.8660822E-1,1.2779728E-1,2.5060177E-3,0E0,0E0,1.7632183E-2,2.824275E0,2.951622E-2,5.4223537E-3,3.8999394E-3,2.6561427E-1,0E0,2.3011439E-2,3.3801943E-2,2.5535822E-3,4.4703484E-4,0E0,1.482435E-4,2.9578943E0,6.562376E-2,1.9576907E-2,1.47435665E-2,4.93142E-3,0E0,3.4825504E-4,1.0526049E-4,1.9917274E-1,6.999122E-2,1.6855493E-2,2.0274049E-2,2.9696286E-2,0E0,0E0,0E0,3.4487247E-4,2.8287321E-3,2.3561902E-4,0E0,0E0,0E0,0E0,0E0,0E0,0E0,0E0,0E0,0E0,0E0,0E0,0E0,0E0,0E0,0E0,0E0,0E0,0E0,0E0,0E0,0E0,0E0,0E0,0E0,0E0,0E0,0E0,0E0,0E0,0E0],"parents":[2147483647,0,0,1,1,2,2,3,3,4,4,5,5,6,6,7,7,8,8,9,9,10,10,11,11,14,14,15,15,16,16,17,17,18,18,19,19,21,21,22,22,23,23,24,24,26,26,27,27,28,28,29,29,30,30,31,31,33,33,34,34,35,35,36,36,37,37,38,38,39,39,43,43,44,44,45,45],"right_children":[2,4,6,8,10,12,14,16,18,20,22,24,-1,-1,26,28,30,32,34,36,-1,38,40,42,44,-1,46,48,50,52,54,56,-1,58,60,62,64,66,68,70,-1,-1,-1,72,74,76,-1,-1,-1,-1,-1,-1,-1,-1,-1,-1,-1,-1,-1,-1,-1,-1,-1,-1,-1,-1,-1,-1,-1,-1,-1,-1,-1,-1,-1,-1,-1],"split_conditions":[1E0,1E0,3.781609E-1,1E0,1E0,4.3677956E-1,-2.3971608E-2,1E0,1E0,1E0,4E-1,1.0620613E-1,-1.5903935E-4,1.6718425E-2,4.7684255E-1,1E0,4E-1,-4.7249373E-2,1E0,1E0,3.313542E-2,6.299408E-2,1E0,2E-1,6.9028735E-2,-7.0010065E-3,4E-1,1E0,1E0,1E0,5E-1,-8.142173E-2,-1.3102196E-2,1.9245009E-1,-6.9786124E-2,1.5041731E-1,1E0,1E0,1E0,1E0,-6.4937132E-3,-1.1276965E-3,-7.5622844E-3,3E-1,2.8970224E-1,1E0,6.1973557E-4,1.0141556E-3,-5.6883995E-3,-5.6804433E-3,-9.710498E-3,-6.49008E-3,-2.7864992E-3,-4.5320536E-3,-6.562767E-3,-1.1380511E-2,-6.97879E-3,-7.5523527E-3,-3.4373149E-3,-1.7262548E-4,-1.6368799E-3,-6.4477283E-3,-3.78036E-3,-5.401682E-4,1.4950928E-2,-1.975806E-3,7.530832E-3,4.7877706E-3,-6.377747E-3,8.229779E-3,-5.4261307E-3,-4.1071284E-3,-7.1435436E-3,-6.234178E-3,-2.8124575E-3,7.305063E-4,3.7271113E-3],"split_indices":[103,17,1,19,16,2,2,71,16,116,8,2,0,0,1,83,8,1,12,12,0,1,102,8,1,0,8,81,15,15,8,1,0,1,1,2,20,108,34,53,0,0,0,8,2,14,0,0,0,0,0,0,0,0,0,0,0,0,0,0,0,0,0,0,0,0,0,0,0,0,0,0,0,0,0,0,0],"split_type":[0,0,0,0,0,0,0,0,0,0,0,0,0,0,0,0,0,0,0,0,0,0,0,0,0,0,0,0,0,0,0,0,0,0,0,0,0,0,0,0,0,0,0,0,0,0,0,0,0,0,0,0,0,0,0,0,0,0,0,0,0,0,0,0,0,0,0,0,0,0,0,0,0,0,0,0,0],"sum_hessian":[2.8068E4,2.7514E4,5.54E2,2.6151E4,1.363E3,5.47E2,7E0,2.5982E4,1.69E2,1.273E3,9E1,5.46E2,1E0,1E0,6E0,2.5306E4,6.76E2,1.57E2,1.2E1,1.272E3,1E0,4.6E1,4.4E1,3.36E2,2.1E2,3E0,3E0,2.4684E4,6.22E2,4.01E2,2.75E2,3.9E1,1.18E2,1E1,2E0,1.166E3,1.06E2,3.4E1,1.2E1,4.3E1,1E0,1E0,3.35E2,1.45E2,6.5E1,2E0,1E0,2.4008E4,6.76E2,5.77E2,4.5E1,3.84E2,1.7E1,2.25E2,5E1,2.9E1,1E1,7E0,3E0,1E0,1E0,6.8E2,4.86E2,1.04E2,2E0,3.3E1,1E0,1.1E1,1E0,4.2E1,1E0,5E0,1.4E2,6E1,5E0,1E0,1E0],"tree_param":{"num_deleted":"0","num_feature":"157","num_nodes":"77","size_leaf_vector":"1"}},{"base_weights":[6.429156E-5,-1.5773285E-3,5.8893234E-2,-3.1418556E-3,5.877943E-2,5.3930197E-2,1.1711503E-1,-4.200083E-3,8.970692E-2,5.4332457E-2,1.0913387E-1,-5.3607307E-2,5.5087112E-2,1.2879616E-1,5.443409E-2,-2.862866E-2,4.8714606E-4,8.11983E-2,1.9888352E-1,5.580559E-2,-4.3466132E-2,1.1774922E-1,-5.695075E-4,-7.733329E-2,1.1713743E-2,5.7692096E-2,4.1673738E-3,5.632326E-3,1.3391733E-1,5.811263E-2,8.8243635E-4,-2.4698608E-2,-1.2308287E-1,2.281773E-3,-6.2584065E-2,8.4907524E-2,-5.552889E-2,2.4511349E-1,1.10008724E-1,5.846017E-2,1.4283734E-2,-7.990301E-3,-1.6435618E-2,1.3143204E-1,6.2327404E-2,-4.604934E-2,4.5100166E-3,-4.743129E-4,-9.090269E-3,1.8498108E-3,-9.27493E-5,6.0446013E-2,2.9523155E-2,7.828914E-3,-3.749869E-3,-9.704426E-4,1.8152915E-3,3.8646217E-2,1.3953477E-1,3.589356E-2,7.315299E-3,-2.5568507E-3,3.7056293E-2,-1.2530692E-2,-6.962125E-3,3.3549647E-4,-1.0384503E-2,-6.472371E-3,-2.76414E-3,7.805293E-3,1.5277169E-2,-1.0709747E-3,-8.027843E-3,1.3623188E-2,3.189789E-2,4.2266995E-3,1.8411914E-2,5.545887E-3,1.2131679E-2,7.573176E-3,-2.7276776E-3,2.7649694E-3,-5.641203E-3,9.648497E-3,1.7303778E-2,2.1955883E-3,1.1445636E-2,-5.690388E-3,-1.2170136E-3,6.1672963E-3,-1.1192894E-3,2.3097105E-3,8.457909E-3,1.2105835E-3,-1.8543013E-3,5.754158E-3,-9.0199336E-4,1.461742E-2,7.312277E-3,4.875617E-3,-1.4209747E-3],"categories":[],"categories_nodes":[],"categories_segments":[],"categories_sizes":[],"default_left":[0,0,0,0,0,0,0,0,0,0,0,0,0,0,0,0,0,0,0,0,0,0,0,0,0,0,0,0,0,0,0,0,0,0,0,0,0,0,0,0,0,0,0,0,0,0,0,0,0,0,0,0,0,0,0,0,0,0,0,0,0,0,0,0,0,0,0,0,0,0,0,0,0,0,0,0,0,0,0,0,0,0,0,0,0,0,0,0,0,0,0,0,0,0,0,0,0,0,0,0,0],"id":9,"left_children":[1,3,5,7,9,11,13,15,17,19,21,23,25,27,29,31,33,35,37,39,41,43,45,47,49,51,53,55,57,59,-1,61,63,65,67,69,71,73,75,77,79,-1,81,83,85,87,-1,-1,-1,-1,-1,89,91,93,-1,-1,-1,95,97,99,-1,-1,-1,-1,-1,-1,-1,-1,-1,-1,-1,-1,-1,-1,-1,-1,-1,-1,-1,-1,-1,-1,-1,-1,-1,-1,-1,-1,-1,-1,-1,-1,-1,-1,-1,-1,-1,-1,-1,-1,-1],"loss_changes":[2.7107534E0,2.5787787E0,2.138691E-1,2.6157322E0,1.4857864E-1,9.053922E-2,3.6188006E-2,3.0136008E0,2.625339E-1,9.405434E-2,5.20494E-2,1.330431E-2,9.2212915E-2,3.0152142E-2,1.332745E-3,1.5697773E0,2.499702E0,1.4671731E-1,5.931765E-2,6.827474E-2,8.535819E-3,3.0482769E-2,1.2462079E-2,5.4788664E-3,2.7444513E-4,4.964757E-2,5.6332424E-3,7.5223914E-4,1.9761026E-2,7.161051E-4,0E0,1.4085484E0,1.1370182E-2,2.4460022E0,4.3892384E-2,1.1507034E-1,8.014264E-3,6.1098456E-2,3.740114E-2,1.0438752E-1,1.01664364E-1,0E0,1.38963815E-2,4.146439E-2,2.2741314E-2,4.1070115E-4,0E0,0E0,0E0,0E0,0E0,5.369234E-2,1.9627795E-2,3.9465697E-3,0E0,0E0,0E0,4.1216984E-3,8.7124705E-3,4.559568E-3,0E0,0E0,0E0,0E0,0E0,0E0,0E0,0E0,0E0,0E0,0E0,0E0,0E0,0E0,0E0,0E0,0E0,0E0,0E0,0E0,0E0,0E0,0E0,0E0,0E0,0E0,0E0,0E0,0E0,0E0,0E0,0E0,0E0,0E0,0E0,0E0,0E0,0E0,0E0,0E0,0E0],"parents":[2147483647,0,0,1,1,2,2,3,3,4,4,5,5,6,6,7,7,8,8,9,9,10,10,11,11,12,12,13,13,14,14,15,15,16,16,17,17,18,18,19,19,20,20,21,21,22,22,23,23,24,24,25,25,26,26,27,27,28,28,29,29,31,31,32,32,33,33,34,34,35,35,36,36,37,37,38,38,39,39,40,40,42,42,43,43,44,44,45,45,51,51,52,52,53,53,57,57,58,58,59,59],"right_children":[2,4,6,8,10,12,14,16,18,20,22,24,26,28,30,32,34,36,38,40,42,44,46,48,50,52,54,56,58,60,-1,62,64,66,68,70,72,74,76,78,80,-1,82,84,86,88,-1,-1,-1,-1,-1,90,92,94,-1,-1,-1,96,98,100,-1,-1,-1,-1,-1,-1,-1,-1,-1,-1,-1,-1,-1,-1,-1,-1,-1,-1,-1,-1,-1,-1,-1,-1,-1,-1,-1,-1,-1,-1,-1,-1,-1,-1,-1,-1,-1,-1,-1,-1,-1],"split_conditions":[1E0,1E0,1E0,1E0,1E0,2E-1,1.5318063E-1,1E0,1E0,1E0,2.560657E-1,2.3409452E-2,1E0,-2.2755754E-1,5E-1,1E0,1E0,2.8175855E-1,2.956973E-2,5E-1,2.1250501E-2,1.8314144E-1,1.17520526E-1,-2.2579272E-1,-1.3583349E-1,1E0,1E0,-5.058458E-2,-2.073102E-1,2.2798276E-1,8.8243635E-4,1E0,3.33608E-1,1E0,1E0,1E0,9.523915E-3,4E-1,5.9956526E-3,1E0,1.353233E-1,-7.990301E-3,6.699921E-2,6.1528668E-2,2.4677792E-1,-8.142173E-2,4.5100166E-3,-4.743129E-4,-9.090269E-3,1.8498108E-3,-9.27493E-5,1E0,1E0,1.6230527E-1,-3.749869E-3,-9.704426E-4,1.8152915E-3,-2.2579272E-1,1.3784148E-1,8.077943E-2,7.315299E-3,-2.5568507E-3,3.7056293E-2,-1.2530692E-2,-6.962125E-3,3.3549647E-4,-1.0384503E-2,-6.472371E-3,-2.76414E-3,7.805293E-3,1.5277169E-2,-1.0709747E-3,-8.027843E-3,1.3623188E-2,3.189789E-2,4.2266995E-3,1.8411914E-2,5.545887E-3,1.2131679E-2,7.573176E-3,-2.7276776E-3,2.7649694E-3,-5.641203E-3,9.648497E-3,1.7303778E-2,2.1955883E-3,1.1445636E-2,-5.690388E-3,-1.2170136E-3,6.1672963E-3,-1.1192894E-3,2.3097105E-3,8.457909E-3,1.2105835E-3,-1.8543013E-3,5.754158E-3,-9.0199336E-4,1.461742E-2,7.312277E-3,4.875617E-3,-1.4209747E-3],"split_indices":[73,64,10,138,10,8,2,4,10,13,2,2,17,1,8,102,25,2,2,8,1,1,1,2,1,14,13,2,2,2,0,66,2,104,11,15,1,8,1,15,2,0,1,1,1,1,0,0,0,0,0,13,11,1,0,0,0,2,1,1,0,0,0,0,0,0,0,0,0,0,0,0,0,0,0,0,0,0,0,0,0,0,0,0,0,0,0,0,0,0,0,0,0,0,0,0,0,0,0,0,0],"split_type":[0,0,0,0,0,0,0,0,0,0,0,0,0,0,0,0,0,0,0,0,0,0,0,0,0,0,0,0,0,0,0,0,0,0,0,0,0,0,0,0,0,0,0,0,0,0,0,0,0,0,0,0,0,0,0,0,0,0,0,0,0,0,0,0,0,0,0,0,0,0,0,0,0,0,0,0,0,0,0,0,0,0,0,0,0,0,0,0,0,0,0,0,0,0,0,0,0,0,0,0,0],"sum_hessian":[2.8067E4,2.7306E4,7.61E2,2.6617E4,6.89E2,7.03E2,5.8E1,2.6318E4,2.99E2,6.35E2,5.4E1,7E0,6.96E2,4.8E1,1E1,4.236E3,2.2082E4,2.79E2,2E1,6.26E2,9E0,5E1,4E0,5E0,2E0,6.62E2,3.4E1,2E0,4.6E1,9E0,1E0,4.068E3,1.68E2,2.1472E4,6.1E2,2.72E2,7E0,1.2E1,8E0,5.88E2,3.8E1,3E0,6E0,3.9E1,1.1E1,2E0,2E0,1E0,4E0,1E0,1E0,6.02E2,6E1,3.2E1,2E0,1E0,1E0,3E0,4.3E1,5E0,4E0,4.06E3,8E0,1.6E2,8E0,2.1258E4,2.14E2,5.74E2,3.6E1,2.49E2,2.3E1,3E0,4E0,6E0,6E0,5E0,3E0,5.63E2,2.5E1,1.5E1,2.3E1,3E0,3E0,2.3E1,1.6E1,7E0,4E0,1E0,1E0,5.92E2,1E1,5.5E1,5E0,2.8E1,4E0,2E0,1E0,3.8E1,5E0,4E0,1E0],"tree_param":{"num_deleted":"0","num_feature":"157","num_nodes":"101","size_leaf_vector":"1"}},{"base_weights":[-7.324003E-5,-2.6735894E-3,4.010358E-2,1.2609197E-4,-3.8369592E-2,1.9385653E-2,5.40941E-2,-1.0921425E-3,7.901137E-2,-6.694511E-3,-8.3674595E-2,1.7850336E-2,2.2492567E-1,5.210266E-2,2.4862507E-1,-2.0452798E-3,9.991125E-2,8.122665E-2,-1.8870885E-2,4.3580164E-3,-8.5695595E-2,-9.392577E-2,-5.8375128E-2,1.4575422E-2,1.1105004E-1,3.7538357E-2,-5.074392E-4,5.028319E-2,2.4766813E-1,2.6531613E-1,4.920279E-3,-8.947295E-3,1.0420854E-2,7.771166E-2,1.5666321E-1,8.452134E-2,2.3702318E-2,-5.257381E-2,6.742881E-3,9.579385E-3,-5.262628E-2,-8.7021165E-2,4.7953352E-3,-9.529422E-2,7.6210655E-2,2.2891965E-2,-6.417839E-2,1.304571E-2,2.1235853E-1,2.1896555E-1,6.890876E-2,5.5857645E-3,-5.66188E-3,4.6806782E-2,1.4726844E-1,6.9355527E-3,2.8870666E-2,2.9163787E-2,1.1546003E-1,-1.0079592E-3,1.0455172E-2,1.4078114E-3,-4.0508895E-3,1.7619033E-3,9.225628E-3,1.7064078E-2,-3.6809307E-3,7.235918E-3,1.0699561E-2,-8.4799074E-4,5.9950757E-3,1.0329038E-4,-7.078702E-3,-4.3061352E-3,7.0900903E-3,7.846552E-4,1.6388325E-2,-5.6585497E-3,1.3601477E-2,-8.822786E-3,3.8544254E-3,-9.873258E-3,-4.158569E-3,1.424526E-2,-9.437858E-3,-1.9624445E-3,1.5534731E-2,-7.13757E-3,-1.3818551E-3,1.2141477E-3,3.0265933E-2,9.647354E-3,2.5745735E-2,2.4201531E-2,5.1858383E-3,4.2935046E-3,1.8446563E-2,4.515309E-3,2.6620362E-2,-9.3028805E-4,1.627206E-2,-7.156678E-4,1.8034672E-2],"categories":[],"categories_nodes":[],"categories_segments":[],"categories_sizes":[],"default_left":[0,0,0,0,0,0,0,0,0,0,0,0,0,0,0,0,0,0,0,0,0,0,0,0,0,0,0,0,0,0,0,0,0,0,0,0,0,0,0,0,0,0,0,0,0,0,0,0,0,0,0,0,0,0,0,0,0,0,0,0,0,0,0,0,0,0,0,0,0,0,0,0,0,0,0,0,0,0,0,0,0,0,0,0,0,0,0,0,0,0,0,0,0,0,0,0,0,0,0,0,0,0,0],"id":10,"left_children":[1,3,5,7,9,11,13,15,17,19,21,23,25,27,29,31,33,35,37,39,41,43,45,47,49,-1,51,53,55,57,-1,59,61,63,65,67,69,71,73,75,77,79,-1,81,83,85,87,89,91,93,95,-1,-1,97,99,-1,-1,-1,101,-1,-1,-1,-1,-1,-1,-1,-1,-1,-1,-1,-1,-1,-1,-1,-1,-1,-1,-1,-1,-1,-1,-1,-1,-1,-1,-1,-1,-1,-1,-1,-1,-1,-1,-1,-1,-1,-1,-1,-1,-1,-1,-1,-1],"loss_changes":[2.9182687E0,2.6218636E0,4.9112463E-1,2.338026E0,2.7374954E0,2.1246529E-1,3.7947845E-1,2.3067396E0,8.1762314E-2,9.818072E-1,1.9810581E-1,2.0654212E-1,1.6978142E-1,3.4479523E-1,2.0231366E-2,2.042373E0,2.7003646E-1,6.6604614E-2,8.123828E-3,2.9417217E-1,2.8621197E-2,1.3694572E-1,1.0946882E-1,1.9691342E-1,8.9508414E-2,0E0,1.2650758E-2,3.2891846E-1,4.5835733E-2,1.8277168E-3,0E0,1.9645014E0,1.5761716E0,1.4084053E-1,1.739465E-1,8.573866E-2,2.500604E-2,3.978517E-3,2.2225136E-2,2.4069545E-1,6.9686756E-2,2.4158597E-2,0E0,9.8015785E-2,6.994529E-2,9.315301E-2,7.6579094E-2,1.6811745E-1,1.2935549E-3,1.0560125E-2,4.610589E-2,0E0,0E0,3.373711E-1,8.377212E-2,0E0,0E0,0E0,2.5159266E-2,0E0,0E0,0E0,0E0,0E0,0E0,0E0,0E0,0E0,0E0,0E0,0E0,0E0,0E0,0E0,0E0,0E0,0E0,0E0,0E0,0E0,0E0,0E0,0E0,0E0,0E0,0E0,0E0,0E0,0E0,0E0,0E0,0E0,0E0,0E0,0E0,0E0,0E0,0E0,0E0,0E0,0E0,0E0,0E0],"parents":[2147483647,0,0,1,1,2,2,3,3,4,4,5,5,6,6,7,7,8,8,9,9,10,10,11,11,12,12,13,13,14,14,15,15,16,16,17,17,18,18,19,19,20,20,21,21,22,22,23,23,24,24,26,26,27,27,28,28,29,29,31,31,32,32,33,33,34,34,35,35,36,36,37,37,38,38,39,39,40,40,41,41,43,43,44,44,45,45,46,46,47,47,48,48,49,49,50,50,53,53,54,54,58,58],"right_children":[2,4,6,8,10,12,14,16,18,20,22,24,26,28,30,32,34,36,38,40,42,44,46,48,50,-1,52,54,56,58,-1,60,62,64,66,68,70,72,74,76,78,80,-1,82,84,86,88,90,92,94,96,-1,-1,98,100,-1,-1,-1,102,-1,-1,-1,-1,-1,-1,-1,-1,-1,-1,-1,-1,-1,-1,-1,-1,-1,-1,-1,-1,-1,-1,-1,-1,-1,-1,-1,-1,-1,-1,-1,-1,-1,-1,-1,-1,-1,-1,-1,-1,-1,-1,-1,-1],"split_conditions":[1E0,5E-1,4E-1,1E0,1E0,1E0,1E0,1E0,2.6265377E-1,1E0,6E-1,2.9608425E-1,-1.172555E-1,1E0,5E-1,4E-1,4E-1,1E0,3.781609E-1,2.8573206E-1,1E0,1E0,-1.6908793E-1,1E0,-9.657483E-3,3.7538357E-2,-5.550389E-2,1E0,-2.294533E-2,2.956973E-2,4.920279E-3,1E0,1E0,-5.8050063E-2,1E0,4E-1,2.2388478E-1,8.5008696E-2,1.1009079E-1,1E0,3.494328E-1,1E0,4.7953352E-3,2.018982E-1,1.751909E-1,1E0,1.5541439E-1,1E0,1.2003101E-2,1E0,1E0,5.5857645E-3,-5.66188E-3,1E0,-7.55544E-2,6.9355527E-3,2.8870666E-2,2.9163787E-2,-6.369193E-4,-1.0079592E-3,1.0455172E-2,1.4078114E-3,-4.0508895E-3,1.7619033E-3,9.225628E-3,1.7064078E-2,-3.6809307E-3,7.235918E-3,1.0699561E-2,-8.4799074E-4,5.9950757E-3,1.0329038E-4,-7.078702E-3,-4.3061352E-3,7.0900903E-3,7.846552E-4,1.6388325E-2,-5.6585497E-3,1.3601477E-2,-8.822786E-3,3.8544254E-3,-9.873258E-3,-4.158569E-3,1.424526E-2,-9.437858E-3,-1.9624445E-3,1.5534731E-2,-7.13757E-3,-1.3818551E-3,1.2141477E-3,3.0265933E-2,9.647354E-3,2.5745735E-2,2.4201531E-2,5.1858383E-3,4.2935046E-3,1.8446563E-2,4.515309E-3,2.6620362E-2,-9.3028805E-4,1.627206E-2,-7.156678E-4,1.8034672E-2],"split_indices":[10,8,8,106,15,123,138,20,1,17,8,1,1,38,8,8,8,17,1,2,141,20,1,28,2,0,1,23,1,2,0,57,17,2,17,8,2,2,2,123,1,44,0,1,2,3,1,149,2,97,41,0,0,20,1,0,0,0,1,0,0,0,0,0,0,0,0,0,0,0,0,0,0,0,0,0,0,0,0,0,0,0,0,0,0,0,0,0,0,0,0,0,0,0,0,0,0,0,0,0,0,0,0],"split_type":[0,0,0,0,0,0,0,0,0,0,0,0,0,0,0,0,0,0,0,0,0,0,0,0,0,0,0,0,0,0,0,0,0,0,0,0,0,0,0,0,0,0,0,0,0,0,0,0,0,0,0,0,0,0,0,0,0,0,0,0,0,0,0,0,0,0,0,0,0,0,0,0,0,0,0,0,0,0,0,0,0,0,0,0,0,0,0,0,0,0,0,0,0,0,0,0,0,0,0,0,0,0,0],"sum_hessian":[2.7931E4,2.6234E4,1.697E3,2.4327E4,1.907E3,6.85E2,1.012E3,2.3958E4,3.69E2,1.123E3,7.84E2,6.81E2,4E0,1.003E3,9E0,2.3735E4,2.23E2,3.61E2,8E0,9.86E2,1.37E2,5.56E2,2.28E2,6.59E2,2.2E1,2E0,2E0,9.95E2,8E0,8E0,1E0,1.5277E4,8.458E3,1.62E2,6.1E1,3.41E2,2E1,3E0,5E0,9.04E2,8.2E1,1.36E2,1E0,5.52E2,4E0,1.5E1,2.13E2,6.55E2,4E0,5E0,1.7E1,1E0,1E0,9.62E2,3.3E1,2E0,6E0,6E0,2E0,1.5127E4,1.5E2,7.892E3,5.66E2,3.2E1,1.3E2,5.7E1,4E0,2.24E2,1.17E2,1.1E1,9E0,1E0,2E0,3E0,2E0,8.95E2,9E0,8.1E1,1E0,1.35E2,1E0,5.18E2,3.4E1,3E0,1E0,1.2E1,3E0,1.86E2,2.7E1,6.54E2,1E0,2E0,2E0,4E0,1E0,1.5E1,2E0,9.56E2,6E0,3E0,3E1,1E0,1E0],"tree_param":{"num_deleted":"0","num_feature":"157","num_nodes":"103","size_leaf_vector":"1"}},{"base_weights":[-1.0090114E-3,-2.2204458E-3,7.127976E-2,-3.7767233E-3,5.3603347E-2,6.5662384E-2,1.18595704E-1,-4.772809E-3,8.379592E-2,4.9977362E-2,9.7712E-2,7.2937757E-3,6.905118E-2,1.3562696E-1,-5.3404056E-4,-6.253282E-3,5.2174363E-2,7.6996155E-2,1.6322805E-1,5.235773E-2,9.6303765E-3,1.1172556E-1,3.0226942E-2,5.1579297E-2,-1.807269E-2,7.332175E-2,1.8448986E-2,1.6967803E-1,1.1042532E-1,-2.615502E-2,7.6595917E-3,-2.680555E-2,-2.210748E-3,5.3618472E-2,-2.548862E-2,7.945986E-2,-4.9167126E-2,8.681113E-2,2.0615241E-1,5.4336067E-2,1.9615423E-2,-1.0109346E-2,2.6240576E-2,7.353237E-2,1.3157907E-1,1.69832E-2,8.133218E-3,-1.8737234E-2,8.986043E-2,7.6912506E-3,-3.7135754E-2,6.2699325E-2,9.10071E-2,6.497527E-2,2.3292191E-4,1.8200278E-1,-7.5965974E-4,3.5485823E-2,1.1500105E-1,1.1314273E-2,-6.739574E-3,-2.7690276E-3,3.180201E-2,-2.4972589E-5,-5.5501834E-3,5.6002284E-3,1.6088396E-3,-4.474599E-3,1.4272365E-3,6.5499865E-3,1.0191774E-2,2.5595128E-4,-6.0024355E-3,2.094399E-3,1.0065992E-2,2.4499593E-2,1.3230945E-2,5.084635E-3,1.1888785E-2,5.8085267E-3,-2.8493023E-3,1.1768508E-3,-2.3852137E-3,4.339562E-3,5.140479E-4,9.4513485E-4,8.571849E-3,-1.1476859E-3,1.3709811E-2,3.153975E-3,-2.7495332E-3,-3.862682E-3,2.0465762E-3,1.020872E-2,1.4363304E-3,-4.7526895E-3,1.6807391E-3,1.7224437E-2,6.0492805E-3,9.266566E-3,-6.479041E-3,-3.457124E-3,1.205104E-2,-4.7404757E-3,3.7645889E-3,1.0377587E-3,1.9352047E-2,8.9323224E-4,4.4296416E-3,7.3154937E-3,1.2436535E-2,1.5898844E-3,-1.2197196E-4],"categories":[],"categories_nodes":[],"categories_segments":[],"categories_sizes":[],"default_left":[0,0,0,0,0,0,0,0,0,0,0,0,0,0,0,0,0,0,0,0,0,0,0,0,0,0,0,0,0,0,0,0,0,0,0,0,0,0,0,0,0,0,0,0,0,0,0,0,0,0,0,0,0,0,0,0,0,0,0,0,0,0,0,0,0,0,0,0,0,0,0,0,0,0,0,0,0,0,0,0,0,0,0,0,0,0,0,0,0,0,0,0,0,0,0,0,0,0,0,0,0,0,0,0,0,0,0,0,0,0,0,0,0],"id":11,"left_children":[1,3,5,7,9,11,13,15,17,19,21,23,25,27,29,31,33,35,37,39,41,43,45,47,49,51,53,55,57,59,-1,61,63,65,67,69,71,73,75,77,79,81,83,85,87,89,-1,91,93,-1,95,97,99,101,103,105,-1,107,109,111,-1,-1,-1,-1,-1,-1,-1,-1,-1,-1,-1,-1,-1,-1,-1,-1,-1,-1,-1,-1,-1,-1,-1,-1,-1,-1,-1,-1,-1,-1,-1,-1,-1,-1,-1,-1,-1,-1,-1,-1,-1,-1,-1,-1,-1,-1,-1,-1,-1,-1,-1,-1,-1],"loss_changes":[2.465341E0,2.4055748E0,1.1553979E-1,2.3501098E0,1.1522961E-1,8.197856E-2,9.7460985E-2,2.2458904E0,1.5108848E-1,6.634009E-2,4.958242E-2,2.789299E-2,8.379078E-2,1.7305255E-2,1.5836382E-2,2.1568646E0,7.7070355E-2,9.124994E-2,5.7547033E-2,4.149151E-2,1.3380504E-2,2.5205016E-2,6.06379E-3,2.5909904E-2,3.1827547E-2,6.2487483E-2,2.7105689E-2,3.6340445E-2,5.177468E-3,1.0034097E-2,0E0,1.3105657E0,2.267222E0,5.84141E-2,1.0592626E-2,7.985377E-2,3.52328E-3,7.0135742E-3,7.741213E-3,1.3339555E-1,7.383327E-2,5.9932973E-3,7.740331E-3,1.324603E-2,2.4469852E-2,7.341734E-3,0E0,3.909453E-3,4.072204E-3,0E0,8.646233E-3,4.517448E-2,4.0629268E-2,5.392115E-2,4.4559E-2,2.7642608E-2,0E0,3.0618627E-4,6.9856644E-4,2.4924404E-4,0E0,0E0,0E0,0E0,0E0,0E0,0E0,0E0,0E0,0E0,0E0,0E0,0E0,0E0,0E0,0E0,0E0,0E0,0E0,0E0,0E0,0E0,0E0,0E0,0E0,0E0,0E0,0E0,0E0,0E0,0E0,0E0,0E0,0E0,0E0,0E0,0E0,0E0,0E0,0E0,0E0,0E0,0E0,0E0,0E0,0E0,0E0,0E0,0E0,0E0,0E0,0E0,0E0],"parents":[2147483647,0,0,1,1,2,2,3,3,4,4,5,5,6,6,7,7,8,8,9,9,10,10,11,11,12,12,13,13,14,14,15,15,16,16,17,17,18,18,19,19,20,20,21,21,22,22,23,23,24,24,25,25,26,26,27,27,28,28,29,29,31,31,32,32,33,33,34,34,35,35,36,36,37,37,38,38,39,39,40,40,41,41,42,42,43,43,44,44,45,45,47,47,48,48,50,50,51,51,52,52,53,53,54,54,55,55,57,57,58,58,59,59],"right_children":[2,4,6,8,10,12,14,16,18,20,22,24,26,28,30,32,34,36,38,40,42,44,46,48,50,52,54,56,58,60,-1,62,64,66,68,70,72,74,76,78,80,82,84,86,88,90,-1,92,94,-1,96,98,100,102,104,106,-1,108,110,112,-1,-1,-1,-1,-1,-1,-1,-1,-1,-1,-1,-1,-1,-1,-1,-1,-1,-1,-1,-1,-1,-1,-1,-1,-1,-1,-1,-1,-1,-1,-1,-1,-1,-1,-1,-1,-1,-1,-1,-1,-1,-1,-1,-1,-1,-1,-1,-1,-1,-1,-1,-1,-1],"split_conditions":[1E0,1E0,1E0,1E0,1E0,3E-1,1.3140385E-1,1E0,1E0,1E0,1.5318063E-1,-2.294533E-2,5E-1,7.2536914E-4,4E-1,1E0,1E0,2.8175855E-1,4E-1,5E-1,4E-1,4E-1,1.6230527E-1,-5.2951876E-2,-1.1609257E-1,4E-1,-1.1033991E-2,5E-1,2.6647437E-2,2.018982E-1,7.6595917E-3,1E0,1E0,1E0,4E-1,4E-1,3.1757244E-1,-2.073102E-1,2.956973E-2,1E0,1E0,7.2536914E-4,9.047038E-3,-7.8567415E-2,-2.2755754E-1,8.077943E-2,8.133218E-3,-1.2598816E-1,1.4619212E-1,7.6912506E-3,1.6622072E-1,-2.073102E-1,1E0,-5.859364E-2,4.9849667E-2,-3.4337488E-1,-7.5965974E-4,-1.4371765E-3,-8.741235E-2,1.5762326E-1,-6.739574E-3,-2.7690276E-3,3.180201E-2,-2.4972589E-5,-5.5501834E-3,5.6002284E-3,1.6088396E-3,-4.474599E-3,1.4272365E-3,6.5499865E-3,1.0191774E-2,2.5595128E-4,-6.0024355E-3,2.094399E-3,1.0065992E-2,2.4499593E-2,1.3230945E-2,5.084635E-3,1.1888785E-2,5.8085267E-3,-2.8493023E-3,1.1768508E-3,-2.3852137E-3,4.339562E-3,5.140479E-4,9.4513485E-4,8.571849E-3,-1.1476859E-3,1.3709811E-2,3.153975E-3,-2.7495332E-3,-3.862682E-3,2.0465762E-3,1.020872E-2,1.4363304E-3,-4.7526895E-3,1.6807391E-3,1.7224437E-2,6.0492805E-3,9.266566E-3,-6.479041E-3,-3.457124E-3,1.205104E-2,-4.7404757E-3,3.7645889E-3,1.0377587E-3,1.9352047E-2,8.9323224E-4,4.4296416E-3,7.3154937E-3,1.2436535E-2,1.5898844E-3,-1.2197196E-4],"split_indices":[44,73,10,138,10,8,1,64,10,17,2,1,8,2,8,4,13,2,8,8,8,8,1,2,2,8,1,8,2,1,0,66,67,11,8,8,2,2,2,15,15,2,2,1,1,1,0,1,2,0,2,2,13,1,1,1,0,1,1,1,0,0,0,0,0,0,0,0,0,0,0,0,0,0,0,0,0,0,0,0,0,0,0,0,0,0,0,0,0,0,0,0,0,0,0,0,0,0,0,0,0,0,0,0,0,0,0,0,0,0,0,0,0],"split_type":[0,0,0,0,0,0,0,0,0,0,0,0,0,0,0,0,0,0,0,0,0,0,0,0,0,0,0,0,0,0,0,0,0,0,0,0,0,0,0,0,0,0,0,0,0,0,0,0,0,0,0,0,0,0,0,0,0,0,0,0,0,0,0,0,0,0,0,0,0,0,0,0,0,0,0,0,0,0,0,0,0,0,0,0,0,0,0,0,0,0,0,0,0,0,0,0,0,0,0,0,0,0,0,0,0,0,0,0,0,0,0,0,0],"sum_hessian":[2.8149E4,2.7686E4,4.63E2,2.6936E4,7.5E2,4.16E2,4.7E1,2.6634E4,3.02E2,6.95E2,5.5E1,2.3E1,3.93E2,4.1E1,6E0,2.596E4,6.74E2,2.8E2,2.2E1,6.56E2,3.9E1,4.5E1,1E1,8E0,1.5E1,3.62E2,3.1E1,1.5E1,2.6E1,5E0,1E0,4.266E3,2.1694E4,6.62E2,1.2E1,2.75E2,5E0,9E0,1.3E1,6.18E2,3.8E1,1.8E1,2.1E1,1.7E1,2.8E1,9E0,1E0,3E0,5E0,2E0,1.3E1,2.29E2,1.33E2,8E0,2.3E1,1.4E1,1E0,2E0,2.4E1,3E0,2E0,4.256E3,1E1,2.0925E4,7.69E2,6.22E2,4E1,8E0,4E0,1.72E2,1.03E2,1E0,4E0,2E0,7E0,7E0,6E0,5.88E2,3E1,2.1E1,1.7E1,7E0,1.1E1,1.1E1,1E1,3E0,1.4E1,1E0,2.7E1,7E0,2E0,2E0,1E0,4E0,1E0,1.1E1,2E0,3E0,2.26E2,1.32E2,1E0,3E0,5E0,1E1,1.3E1,1E0,1.3E1,1E0,1E0,6E0,1.8E1,2E0,1E0],"tree_param":{"num_deleted":"0","num_feature":"157","num_nodes":"113","size_leaf_vector":"1"}},{"base_weights":[6.738523E-5,1.5405864E-3,-5.5826493E-2,2.8720407E-3,-5.9499208E-2,-5.429555E-2,-8.4281616E-2,3.74646E-3,-9.221132E-2,-6.0695007E-2,2.3643203E-2,-5.5261787E-2,-2.8629737E-2,-8.954134E-2,-3.481503E-2,5.3202286E-3,-5.01324E-2,-4.1662127E-2,-9.309451E-2,-6.193061E-2,-4.9036633E-2,1.6199198E-2,-1.389939E-2,-5.4539192E-2,-8.708492E-2,9.0752466E-4,-4.3448787E-2,-2.2468704E-3,-9.102813E-3,-1.0430686E-3,-3.8303442E-3,6.9260173E-3,-5.081364E-2,-5.160981E-2,-1.6334021E-2,2.828037E-2,-8.370346E-3,-9.427709E-2,-5.239786E-2,-6.36425E-3,-5.6344897E-2,1.6047306E-3,-5.0411742E-2,-6.0008927E-3,2.5768116E-2,-5.791097E-2,-4.927176E-2,-2.4921347E-3,-9.018844E-3,-4.3049872E-2,2.5896389E-2,-5.0131705E-2,3.5080411E-3,8.496403E-4,-5.4993806E-3,-5.5315048E-3,-4.4033867E-3,-5.306599E-3,-1.2215147E-3,-2.5574157E-3,1.5738171E-3,-6.89197E-4,4.9312524E-3,-1.5886028E-3,-9.4548855E-3,-6.400355E-3,-2.188986E-3,-5.7389503E-3,-2.5191486E-3,-5.1938505E-3,-4.5993304E-4,3.2454133E-3,1.0492727E-3,-5.9442422E-3,-4.7167667E-4,-5.222146E-3,-2.3975146E-3,6.065257E-4,-6.144333E-3,-2.5824443E-3,3.8820603E-3,-2.8702065E-3,-7.065229E-3],"categories":[],"categories_nodes":[],"categories_segments":[],"categories_sizes":[],"default_left":[0,0,0,0,0,0,0,0,0,0,0,0,0,0,0,0,0,0,0,0,0,0,0,0,0,0,0,0,0,0,0,0,0,0,0,0,0,0,0,0,0,0,0,0,0,0,0,0,0,0,0,0,0,0,0,0,0,0,0,0,0,0,0,0,0,0,0,0,0,0,0,0,0,0,0,0,0,0,0,0,0,0,0],"id":12,"left_children":[1,3,5,7,9,11,13,15,17,19,21,23,25,27,29,31,33,35,37,39,41,-1,43,45,47,49,51,-1,-1,-1,-1,53,55,57,59,61,-1,63,65,-1,67,-1,69,-1,71,73,75,-1,-1,77,79,81,-1,-1,-1,-1,-1,-1,-1,-1,-1,-1,-1,-1,-1,-1,-1,-1,-1,-1,-1,-1,-1,-1,-1,-1,-1,-1,-1,-1,-1,-1,-1],"loss_changes":[2.3118634E0,2.2233584E0,2.6832819E-2,2.226242E0,5.9497595E-2,1.5455008E-2,5.9889257E-3,2.2497365E0,7.01499E-3,5.260706E-3,4.899733E-2,1.0450125E-2,1.1857713E-2,1.046136E-3,2.5781803E-5,2.3238678E0,3.675735E-2,2.0010024E-2,6.562233E-3,1.3574362E-3,6.178826E-3,0E0,1.6178718E-2,8.67331E-3,2.604127E-4,1.209929E-2,1.1205114E-2,0E0,0E0,0E0,0E0,2.4373488E0,1.9446015E-2,4.0712595E-2,1.0182088E-2,2.559111E-3,0E0,3.4191608E-3,1.7855708E-3,0E0,2.784878E-3,0E0,3.887847E-3,0E0,1.7012516E-4,3.1490684E-2,1.8148482E-2,0E0,0E0,3.9862576E-3,5.681678E-3,5.447861E-3,0E0,0E0,0E0,0E0,0E0,0E0,0E0,0E0,0E0,0E0,0E0,0E0,0E0,0E0,0E0,0E0,0E0,0E0,0E0,0E0,0E0,0E0,0E0,0E0,0E0,0E0,0E0,0E0,0E0,0E0,0E0],"parents":[2147483647,0,0,1,1,2,2,3,3,4,4,5,5,6,6,7,7,8,8,9,9,10,10,11,11,12,12,13,13,14,14,15,15,16,16,17,17,18,18,19,19,20,20,22,22,23,23,24,24,25,25,26,26,31,31,32,32,33,33,34,34,35,35,37,37,38,38,40,40,42,42,44,44,45,45,46,46,49,49,50,50,51,51],"right_children":[2,4,6,8,10,12,14,16,18,20,22,24,26,28,30,32,34,36,38,40,42,-1,44,46,48,50,52,-1,-1,-1,-1,54,56,58,60,62,-1,64,66,-1,68,-1,70,-1,72,74,76,-1,-1,78,80,82,-1,-1,-1,-1,-1,-1,-1,-1,-1,-1,-1,-1,-1,-1,-1,-1,-1,-1,-1,-1,-1,-1,-1,-1,-1,-1,-1,-1,-1,-1,-1],"split_conditions":[1E0,1E0,1E0,1E0,3.781609E-1,1E0,1E0,1E0,-2.073102E-1,1E0,-2.3971608E-2,4.1528437E-1,1.00989945E-1,-1.3395996E-1,4E-1,1E0,1E0,-7.379911E-2,1E0,6.085806E-2,3E-1,1.6199198E-2,4.7684255E-1,4E-1,-1.5147918E-1,2.0240612E-2,1.0540926E-1,-2.2468704E-3,-9.102813E-3,-1.0430686E-3,-3.8303442E-3,1E0,4E-1,1E0,2.3287803E-1,-1.2836154E-1,-8.370346E-3,2E-1,4E-1,-6.36425E-3,2.8970224E-1,1.6047306E-3,5E-1,-6.0008927E-3,4E-1,1E0,1E0,-2.4921347E-3,-9.018844E-3,-8.453505E-2,-4.4180166E-2,1.7784966E-2,3.5080411E-3,8.496403E-4,-5.4993806E-3,-5.5315048E-3,-4.4033867E-3,-5.306599E-3,-1.2215147E-3,-2.5574157E-3,1.5738171E-3,-6.89197E-4,4.9312524E-3,-1.5886028E-3,-9.4548855E-3,-6.400355E-3,-2.188986E-3,-5.7389503E-3,-2.5191486E-3,-5.1938505E-3,-4.5993304E-4,3.2454133E-3,1.0492727E-3,-5.9442422E-3,-4.7167667E-4,-5.222146E-3,-2.3975146E-3,6.065257E-4,-6.144333E-3,-2.5824443E-3,3.8820603E-3,-2.8702065E-3,-7.065229E-3],"split_indices":[71,103,17,24,1,12,12,67,2,14,2,1,2,2,8,81,16,1,12,1,8,0,1,8,2,2,1,0,0,0,0,25,8,12,2,1,0,8,8,0,2,0,8,0,8,15,10,0,0,2,1,1,0,0,0,0,0,0,0,0,0,0,0,0,0,0,0,0,0,0,0,0,0,0,0,0,0,0,0,0,0,0,0],"split_type":[0,0,0,0,0,0,0,0,0,0,0,0,0,0,0,0,0,0,0,0,0,0,0,0,0,0,0,0,0,0,0,0,0,0,0,0,0,0,0,0,0,0,0,0,0,0,0,0,0,0,0,0,0,0,0,0,0,0,0,0,0,0,0,0,0,0,0,0,0,0,0,0,0,0,0,0,0,0,0,0,0,0,0],"sum_hessian":[2.8074E4,2.7354E4,7.2E2,2.6771E4,5.83E2,6.86E2,3.4E1,2.6528E4,2.43E2,5.75E2,8E0,6.6E2,2.6E1,3E1,4E0,2.5776E4,7.52E2,5E0,2.38E2,5.16E2,5.9E1,1E0,7E0,6.48E2,1.2E1,9E0,1.7E1,1E0,2.9E1,1E0,3E0,2.506E4,7.16E2,7.2E2,3.2E1,2E0,3E0,2.3E2,8E0,3.87E2,1.29E2,1E0,5.8E1,3E0,4E0,3.89E2,2.59E2,1E0,1.1E1,3E0,6E0,1.6E1,1E0,2.4441E4,6.19E2,4.26E2,2.9E2,6.94E2,2.6E1,2.5E1,7E0,1E0,1E0,1E0,2.29E2,5E0,3E0,1.24E2,5E0,5.6E1,2E0,2E0,2E0,3.78E2,1.1E1,2.31E2,2.8E1,1E0,2E0,1E0,5E0,9E0,7E0],"tree_param":{"num_deleted":"0","num_feature":"157","num_nodes":"83","size_leaf_vector":"1"}},{"base_weights":[-1.4088303E-4,-2.6274754E-3,3.891991E-2,-1.5998147E-4,-3.432599E-2,4.0689677E-2,-1.1071287E-1,5.4129126E-4,-1.027716E-1,-5.9567913E-3,-7.613904E-2,3.9627735E-2,2.56222E-1,-1.1431995E-1,-2.1089204E-3,1.9193676E-3,-5.0948124E-2,-1.0578529E-1,-5.5029318E-2,2.965951E-3,-7.253581E-2,-8.2158566E-2,-3.0056646E-2,2.1512909E-2,5.2056387E-2,2.7486974E-2,6.2843957E-3,-1.2146574E-2,-5.7156805E-2,2.7153199E-3,-9.201658E-2,-5.2186105E-2,-2.4160108E-2,-8.059336E-2,-1.1188887E-1,-6.256668E-2,-1.1561667E-2,-1.451547E-4,4.402583E-2,-7.47681E-2,1.9263778E-2,-8.986199E-2,-6.209514E-2,-5.0241258E-2,4.907668E-2,2.0692438E-2,2.8848607E-2,6.401097E-2,1.9669108E-2,-1.3188546E-2,-9.45308E-3,3.3883334E-4,-1.0928671E-2,-9.368837E-3,-4.018239E-3,-5.074055E-3,-7.662049E-3,-5.119872E-3,-8.080867E-4,-9.906286E-3,-5.629664E-3,-1.1285194E-2,-5.502449E-3,-6.561072E-3,-1.7585173E-3,-1.7160401E-4,-1.562646E-3,-2.0026427E-4,7.7284924E-3,-3.0752167E-3,6.46048E-3,-7.6903156E-3,-5.1570684E-4,4.514335E-3,-4.41053E-4,-9.11953E-3,3.3335579E-3,2.6903932E-3,-6.920626E-3,-7.934651E-3,-6.311392E-5,8.31798E-3,-6.304802E-3,2.3068315E-3,-6.280206E-3,6.729857E-3,-3.8400672E-3,4.4026948E-3,-3.9916257E-3,-2.2759007E-3,2.9761865E-4],"categories":[],"categories_nodes":[],"categories_segments":[],"categories_sizes":[],"default_left":[0,0,0,0,0,0,0,0,0,0,0,0,0,0,0,0,0,0,0,0,0,0,0,0,0,0,0,0,0,0,0,0,0,0,0,0,0,0,0,0,0,0,0,0,0,0,0,0,0,0,0,0,0,0,0,0,0,0,0,0,0,0,0,0,0,0,0,0,0,0,0,0,0,0,0,0,0,0,0,0,0,0,0,0,0,0,0,0,0,0,0],"id":13,"left_children":[1,3,5,7,9,11,13,15,17,19,21,23,25,27,-1,29,31,33,35,37,39,41,43,45,47,-1,-1,-1,49,51,53,55,57,59,61,63,65,67,69,71,73,75,77,79,81,83,-1,85,87,89,-1,-1,-1,-1,-1,-1,-1,-1,-1,-1,-1,-1,-1,-1,-1,-1,-1,-1,-1,-1,-1,-1,-1,-1,-1,-1,-1,-1,-1,-1,-1,-1,-1,-1,-1,-1,-1,-1,-1,-1,-1],"loss_changes":[2.739411E0,2.0739672E0,4.5151162E-1,1.7703843E0,2.2711246E0,3.718524E-1,4.0546805E-3,1.7339869E0,1.8206716E-2,6.7864025E-1,2.1223354E-1,3.7306762E-1,1.1574566E-2,8.184612E-4,0E0,1.7797408E0,1.9864202E-2,1.496923E-2,3.2082014E-3,1.2876995E-1,2.9105008E-2,1.00137234E-1,1.4781773E-1,1.4254224E-1,3.8010955E-1,0E0,0E0,0E0,5.326353E-3,1.7793874E0,1.3566732E-2,1.7587543E-2,1.2629081E-2,9.680554E-3,5.264282E-4,2.1547824E-4,9.3245646E-5,1.3506304E-1,1.1124535E-1,1.9221663E-2,2.6498302E-3,8.385658E-2,1.2400836E-1,1.05355725E-1,7.789657E-2,1.3574705E-1,0E0,2.4466324E-1,3.8927335E-1,5.3184683E-4,0E0,0E0,0E0,0E0,0E0,0E0,0E0,0E0,0E0,0E0,0E0,0E0,0E0,0E0,0E0,0E0,0E0,0E0,0E0,0E0,0E0,0E0,0E0,0E0,0E0,0E0,0E0,0E0,0E0,0E0,0E0,0E0,0E0,0E0,0E0,0E0,0E0,0E0,0E0,0E0,0E0],"parents":[2147483647,0,0,1,1,2,2,3,3,4,4,5,5,6,6,7,7,8,8,9,9,10,10,11,11,12,12,13,13,15,15,16,16,17,17,18,18,19,19,20,20,21,21,22,22,23,23,24,24,28,28,29,29,30,30,31,31,32,32,33,33,34,34,35,35,36,36,37,37,38,38,39,39,40,40,41,41,42,42,43,43,44,44,45,45,47,47,48,48,49,49],"right_children":[2,4,6,8,10,12,14,16,18,20,22,24,26,28,-1,30,32,34,36,38,40,42,44,46,48,-1,-1,-1,50,52,54,56,58,60,62,64,66,68,70,72,74,76,78,80,82,84,-1,86,88,90,-1,-1,-1,-1,-1,-1,-1,-1,-1,-1,-1,-1,-1,-1,-1,-1,-1,-1,-1,-1,-1,-1,-1,-1,-1,-1,-1,-1,-1,-1,-1,-1,-1,-1,-1,-1,-1,-1,-1,-1,-1],"split_conditions":[1E0,5E-1,1E0,1E0,1E0,1E0,1E0,1E0,1E0,1E0,1.5225652E-1,4E-1,1.1669665E-1,5.766207E-2,-2.1089204E-3,1E0,1E0,-5.440066E-2,1E0,1E0,1E0,6E-1,2.4022545E-1,1E0,5E-1,2.7486974E-2,6.2843957E-3,-1.2146574E-2,6.699921E-2,1E0,1E0,1E0,-8.093224E-3,6.0195003E-2,1E0,1E0,-6.9786124E-2,1E0,-3.9668094E-2,1E0,-2.016878E-2,1E0,-1.6908793E-1,6E-1,1E0,1E0,2.8848607E-2,1E0,1E0,5.8775228E-2,-9.45308E-3,3.3883334E-4,-1.0928671E-2,-9.368837E-3,-4.018239E-3,-5.074055E-3,-7.662049E-3,-5.119872E-3,-8.080867E-4,-9.906286E-3,-5.629664E-3,-1.1285194E-2,-5.502449E-3,-6.561072E-3,-1.7585173E-3,-1.7160401E-4,-1.562646E-3,-2.0026427E-4,7.7284924E-3,-3.0752167E-3,6.46048E-3,-7.6903156E-3,-5.1570684E-4,4.514335E-3,-4.41053E-4,-9.11953E-3,3.3335579E-3,2.6903932E-3,-6.920626E-3,-7.934651E-3,-6.311392E-5,8.31798E-3,-6.304802E-3,2.3068315E-3,-6.280206E-3,6.729857E-3,-3.8400672E-3,4.4026948E-3,-3.9916257E-3,-2.2759007E-3,2.9761865E-4],"split_indices":[10,8,100,19,15,28,12,71,16,17,1,8,2,1,0,104,16,1,12,11,141,8,2,149,8,0,0,0,1,49,16,17,2,2,12,17,1,23,1,73,1,20,1,8,11,71,0,81,15,1,0,0,0,0,0,0,0,0,0,0,0,0,0,0,0,0,0,0,0,0,0,0,0,0,0,0,0,0,0,0,0,0,0,0,0,0,0,0,0,0,0],"split_type":[0,0,0,0,0,0,0,0,0,0,0,0,0,0,0,0,0,0,0,0,0,0,0,0,0,0,0,0,0,0,0,0,0,0,0,0,0,0,0,0,0,0,0,0,0,0,0,0,0,0,0,0,0,0,0,0,0,0,0,0,0,0,0,0,0,0,0,0,0,0,0,0,0,0,0,0,0,0,0,0,0,0,0,0,0,0,0,0,0,0,0],"sum_hessian":[2.8202E4,2.6515E4,1.687E3,2.4601E4,1.914E3,1.668E3,1.9E1,2.4435E4,1.66E2,1.141E3,7.73E2,1.661E3,7E0,1.8E1,1E0,2.3799E4,6.36E2,1.55E2,1.1E1,1.007E3,1.34E2,6.83E2,9E1,6.77E2,9.84E2,6E0,1E0,1.5E1,3E0,2.36E4,1.99E2,6.07E2,2.9E1,3.3E1,1.22E2,9E0,2E0,9.37E2,7E1,1.31E2,3E0,4.91E2,1.92E2,7.2E1,1.8E1,6.76E2,1E0,7.18E2,2.66E2,2E0,1E0,2.346E4,1.4E2,1.92E2,7E0,5.76E2,3.1E1,1E1,1.9E1,1.7E1,1.6E1,1.19E2,3E0,8E0,1E0,1E0,1E0,9.16E2,2.1E1,1.5E1,5.5E1,1.27E2,4E0,1E0,2E0,4.86E2,5E0,1.4E1,1.78E2,4.5E1,2.7E1,1.4E1,4E0,6.58E2,1.8E1,6.96E2,2.2E1,1.89E2,7.7E1,1E0,1E0],"tree_param":{"num_deleted":"0","num_feature":"157","num_nodes":"91","size_leaf_vector":"1"}},{"base_weights":[1.3051566E-4,-2.0910867E-3,3.4485932E-2,-3.5065906E-3,4.89355E-2,3.2525927E-2,1.6513258E-1,-4.333841E-3,8.354011E-2,5.1394235E-2,1.270031E-3,3.4848794E-2,-6.1408844E-2,2.384796E-1,1.1658812E-1,-5.663069E-3,4.7473203E-2,6.203184E-2,1.2970251E-1,5.3721722E-2,1.6636305E-2,-1.695143E-2,1.8465623E-2,3.7081808E-2,-6.3138515E-2,1.4241223E-2,-7.4784316E-2,8.8310735E-3,2.6876917E-2,-2.9196627E-2,1.4991319E-1,-6.7218253E-3,6.1209146E-2,4.4848848E-2,8.656337E-2,-1.5352888E-3,7.3764324E-2,1.4203466E-1,-7.382098E-2,4.4276565E-2,7.073611E-2,5.7560768E-2,-2.6904555E-2,-2.9337129E-2,2.1978328E-3,3.4648683E-2,4.360035E-4,3.5301603E-2,1.5822618E-1,-6.5157893E-3,4.7795437E-4,-3.135939E-3,3.8753346E-2,-8.038791E-2,5.7868944E-3,1.5052299E-2,-8.097171E-3,2.8833574E-2,1.9546168E-1,-7.824298E-4,5.5438736E-3,6.5529994E-3,5.609419E-4,4.6888296E-3,3.1463357E-4,1.0687034E-2,-4.293666E-3,2.1204276E-3,-6.9534653E-3,7.83326E-3,-2.487598E-3,1.4688769E-2,-1.01264985E-2,-9.846589E-3,-2.4569079E-3,4.132467E-3,1.0643051E-2,6.490922E-3,9.686155E-3,2.7261702E-3,1.9466592E-2,-4.355172E-3,2.47465E-3,-1.0335919E-3,-6.0005262E-3,-4.937536E-3,1.6619054E-3,4.326498E-3,-2.1449008E-3,-2.2349262E-3,2.7691124E-3,3.362973E-3,1.5829468E-2,2.307696E-2,1.1904794E-2,-1.7253153E-3,5.7068258E-3,-4.0162834E-3,-9.122013E-3,2.9968105E-3,-7.3896575E-4,6.0205124E-3,-4.8326314E-3,3.7304217E-3,2.3033801E-2],"categories":[],"categories_nodes":[],"categories_segments":[],"categories_sizes":[],"default_left":[0,0,0,0,0,0,0,0,0,0,0,0,0,0,0,0,0,0,0,0,0,0,0,0,0,0,0,0,0,0,0,0,0,0,0,0,0,0,0,0,0,0,0,0,0,0,0,0,0,0,0,0,0,0,0,0,0,0,0,0,0,0,0,0,0,0,0,0,0,0,0,0,0,0,0,0,0,0,0,0,0,0,0,0,0,0,0,0,0,0,0,0,0,0,0,0,0,0,0,0,0,0,0,0,0],"id":14,"left_children":[1,3,5,7,9,11,13,15,17,19,21,23,25,27,29,31,33,35,37,39,41,43,45,47,49,51,53,-1,-1,55,57,59,61,63,65,67,69,71,73,75,77,79,81,83,85,87,89,91,93,-1,-1,-1,95,97,-1,99,-1,101,103,-1,-1,-1,-1,-1,-1,-1,-1,-1,-1,-1,-1,-1,-1,-1,-1,-1,-1,-1,-1,-1,-1,-1,-1,-1,-1,-1,-1,-1,-1,-1,-1,-1,-1,-1,-1,-1,-1,-1,-1,-1,-1,-1,-1,-1,-1],"loss_changes":[2.146305E0,1.9079386E0,4.3199372E-1,1.8510764E0,8.3495975E-2,3.695861E-1,6.121087E-2,1.7535303E0,2.3222971E-1,5.3955555E-2,1.1592857E-2,3.6205947E-1,4.25511E-2,1.7201781E-2,8.6967826E-2,1.7579848E0,6.1465263E-2,1.2466198E-1,2.0123625E-1,9.891486E-2,7.995164E-2,4.333663E-3,5.528607E-3,3.411982E-1,5.3860545E-3,9.039656E-3,3.066869E-2,0E0,0E0,1.0382776E-2,7.157406E-2,1.6751779E0,9.260452E-2,5.079758E-2,1.07149005E-1,4.322388E-2,6.548554E-2,9.988773E-2,3.6498252E-3,7.100874E-2,2.7964473E-2,9.02387E-2,1.999431E-2,5.7898387E-3,6.770559E-3,5.761536E-3,6.829028E-3,3.2080412E-1,3.7896216E-2,0E0,0E0,0E0,6.1133783E-3,1.1151075E-2,0E0,1.2256737E-3,0E0,1.5012618E-2,4.6566933E-2,0E0,0E0,0E0,0E0,0E0,0E0,0E0,0E0,0E0,0E0,0E0,0E0,0E0,0E0,0E0,0E0,0E0,0E0,0E0,0E0,0E0,0E0,0E0,0E0,0E0,0E0,0E0,0E0,0E0,0E0,0E0,0E0,0E0,0E0,0E0,0E0,0E0,0E0,0E0,0E0,0E0,0E0,0E0,0E0,0E0,0E0],"parents":[2147483647,0,0,1,1,2,2,3,3,4,4,5,5,6,6,7,7,8,8,9,9,10,10,11,11,12,12,13,13,14,14,15,15,16,16,17,17,18,18,19,19,20,20,21,21,22,22,23,23,24,24,25,25,26,26,29,29,30,30,31,31,32,32,33,33,34,34,35,35,36,36,37,37,38,38,39,39,40,40,41,41,42,42,43,43,44,44,45,45,46,46,47,47,48,48,52,52,53,53,55,55,57,57,58,58],"right_children":[2,4,6,8,10,12,14,16,18,20,22,24,26,28,30,32,34,36,38,40,42,44,46,48,50,52,54,-1,-1,56,58,60,62,64,66,68,70,72,74,76,78,80,82,84,86,88,90,92,94,-1,-1,-1,96,98,-1,100,-1,102,104,-1,-1,-1,-1,-1,-1,-1,-1,-1,-1,-1,-1,-1,-1,-1,-1,-1,-1,-1,-1,-1,-1,-1,-1,-1,-1,-1,-1,-1,-1,-1,-1,-1,-1,-1,-1,-1,-1,-1,-1,-1,-1,-1,-1,-1,-1],"split_conditions":[1E0,1E0,1E0,1E0,1E0,1E0,8.636237E-2,1E0,4E-1,5E-1,4E-1,1E0,-3.9696813E-2,-6.034834E-2,1.08848356E-1,1E0,3.2204074E-1,-7.024875E-2,1E0,4E-1,9.339482E-2,5.472841E-2,7.2536914E-4,1E0,3.1064695E-1,-1.2598816E-1,1E0,8.8310735E-3,2.6876917E-2,4E-1,2.5877357E-2,1E0,1E0,1E0,5E-1,-8.453505E-2,8.414699E-2,1.4287706E-1,5E-1,1E0,1.8003757E-1,5.7423834E-2,2.1822603E-1,6.375063E-4,3E-1,1E0,9.695443E-2,1E0,3.7161607E-2,-6.5157893E-3,4.7795437E-4,-3.135939E-3,-1.3910575E-1,-1.2836154E-1,5.7868944E-3,-2.7216554E-1,-8.097171E-3,1.4497502E-1,4E-1,-7.824298E-4,5.5438736E-3,6.5529994E-3,5.609419E-4,4.6888296E-3,3.1463357E-4,1.0687034E-2,-4.293666E-3,2.1204276E-3,-6.9534653E-3,7.83326E-3,-2.487598E-3,1.4688769E-2,-1.01264985E-2,-9.846589E-3,-2.4569079E-3,4.132467E-3,1.0643051E-2,6.490922E-3,9.686155E-3,2.7261702E-3,1.9466592E-2,-4.355172E-3,2.47465E-3,-1.0335919E-3,-6.0005262E-3,-4.937536E-3,1.6619054E-3,4.326498E-3,-2.1449008E-3,-2.2349262E-3,2.7691124E-3,3.362973E-3,1.5829468E-2,2.307696E-2,1.1904794E-2,-1.7253153E-3,5.7068258E-3,-4.0162834E-3,-9.122013E-3,2.9968105E-3,-7.3896575E-4,6.0205124E-3,-4.8326314E-3,3.7304217E-3,2.3033801E-2],"split_indices":[10,73,95,20,17,55,2,64,8,8,8,103,2,2,2,106,2,2,17,8,2,2,2,57,1,1,12,0,0,8,1,44,17,17,8,2,1,1,8,15,2,2,2,1,8,11,2,138,2,0,0,0,2,1,0,1,0,2,8,0,0,0,0,0,0,0,0,0,0,0,0,0,0,0,0,0,0,0,0,0,0,0,0,0,0,0,0,0,0,0,0,0,0,0,0,0,0,0,0,0,0,0,0,0,0],"split_type":[0,0,0,0,0,0,0,0,0,0,0,0,0,0,0,0,0,0,0,0,0,0,0,0,0,0,0,0,0,0,0,0,0,0,0,0,0,0,0,0,0,0,0,0,0,0,0,0,0,0,0,0,0,0,0,0,0,0,0,0,0,0,0,0,0,0,0,0,0,0,0,0,0,0,0,0,0,0,0,0,0,0,0,0,0,0,0,0,0,0,0,0,0,0,0,0,0,0,0,0,0,0,0,0,0],"sum_hessian":[2.8119E4,2.6412E4,1.707E3,2.57E4,7.12E2,1.683E3,2.4E1,2.5459E4,2.41E2,6.77E2,3.5E1,1.643E3,4E1,8E0,1.6E1,2.4823E4,6.36E2,1.66E2,7.5E1,6.34E2,4.3E1,1.7E1,1.8E1,1.607E3,3.6E1,6E0,3.4E1,2E0,6E0,3E0,1.3E1,2.4437E4,3.86E2,5.98E2,3.8E1,2.6E1,1.4E2,7.1E1,4E0,4.1E2,2.24E2,2.2E1,2.1E1,1E1,7E0,9E0,9E0,1.585E3,2.2E1,3.5E1,1E0,2E0,4E0,3.3E1,1E0,2E0,1E0,4E0,9E0,2.4012E4,4.25E2,3.58E2,2.8E1,5.7E2,2.8E1,3.3E1,5E0,2E1,6E0,1.34E2,6E0,7E1,1E0,2E0,2E0,3.93E2,1.7E1,1.86E2,3.8E1,1.9E1,3E0,1.6E1,5E0,7E0,3E0,1E0,6E0,8E0,1E0,5E0,4E0,1.565E3,2E1,6E0,1.6E1,1E0,3E0,8E0,2.5E1,1E0,1E0,3E0,1E0,2E0,7E0],"tree_param":{"num_deleted":"0","num_feature":"157","num_nodes":"105","size_leaf_vector":"1"}},{"base_weights":[6.825877E-5,1.9626634E-3,-3.5671104E-2,2.5999823E-3,-1.10087655E-1,-4.0046357E-2,2.8426476E-2,1.8310844E-3,9.4597295E-2,-8.999905E-2,-1.1776679E-1,-4.2341586E-2,6.778418E-2,-3.2849E-3,6.2374648E-2,2.6257664E-3,-8.3125986E-2,1.0380581E-1,1.1211065E-2,-1.08889945E-1,1.3557783E-1,-1.1850405E-2,-2.0177593E-3,-4.2859863E-2,3.149322E-2,-4.1049734E-2,9.3228504E-2,1.6215578E-2,-3.1396348E-2,8.672346E-3,7.593603E-2,3.8719343E-3,-4.8900247E-2,-8.459295E-2,-4.0339567E-2,3.3160467E-3,1.0969924E-1,-2.1932459E-2,9.01009E-2,-9.109388E-3,-1.13535106E-1,2.2142552E-2,-6.0982616E-3,-9.463246E-2,-3.9873753E-2,8.120336E-4,-5.2507814E-2,1.8815096E-2,3.9940495E-2,-2.0010812E-2,4.6900194E-2,-4.0619716E-2,3.440933E-3,6.4363964E-3,-1.3296053E-2,9.225504E-2,9.327482E-3,5.256551E-4,-4.593165E-3,1.00904945E-2,-5.053916E-3,-7.9856E-3,-9.245756E-3,-1.9244502E-3,-6.7171045E-3,9.97319E-3,-2.5940312E-3,1.2518897E-2,8.693874E-3,-4.1361176E-3,5.1551163E-3,1.5647676E-2,1.19981916E-4,-4.163054E-3,2.7966455E-3,-1.1761653E-2,-2.2631602E-3,-9.9920025E-3,1.35104805E-2,-2.6467403E-3,-5.018534E-3,-5.9560896E-3,-1.2147743E-3,-3.304297E-3,1.384968E-2,-7.213251E-3,8.051118E-4,5.70221E-3,-5.2464195E-3,7.148739E-4,-5.064999E-3,-2.748081E-3,4.299862E-3,6.501682E-3,1.23154605E-2,5.8241473E-3,-1.6684093E-3],"categories":[],"categories_nodes":[],"categories_segments":[],"categories_sizes":[],"default_left":[0,0,0,0,0,0,0,0,0,0,0,0,0,0,0,0,0,0,0,0,0,0,0,0,0,0,0,0,0,0,0,0,0,0,0,0,0,0,0,0,0,0,0,0,0,0,0,0,0,0,0,0,0,0,0,0,0,0,0,0,0,0,0,0,0,0,0,0,0,0,0,0,0,0,0,0,0,0,0,0,0,0,0,0,0,0,0,0,0,0,0,0,0,0,0,0,0],"id":15,"left_children":[1,3,5,7,9,11,13,15,17,19,21,23,25,27,29,31,33,35,37,39,41,-1,-1,43,-1,45,47,49,51,53,55,57,59,61,63,65,67,69,71,73,75,-1,-1,77,79,-1,81,-1,83,85,87,89,-1,-1,91,93,95,-1,-1,-1,-1,-1,-1,-1,-1,-1,-1,-1,-1,-1,-1,-1,-1,-1,-1,-1,-1,-1,-1,-1,-1,-1,-1,-1,-1,-1,-1,-1,-1,-1,-1,-1,-1,-1,-1,-1,-1],"loss_changes":[1.9031844E0,1.9066243E0,3.979653E-1,1.8775283E0,1.2694836E-2,3.3080196E-1,9.8170325E-2,1.7775881E0,1.677661E-1,2.1078515E-1,5.235553E-3,2.5384474E-1,8.1364736E-2,2.6822068E-2,3.138566E-2,1.67498E0,1.1902571E-2,1.1689782E-1,6.211393E-2,1.8896163E-2,8.100014E-2,0E0,0E0,1.967411E-1,0E0,3.8067494E-3,1.0882443E-1,3.31747E-2,1.3536699E-2,1.3090342E-2,3.7184E-2,1.7564859E0,1.5633833E-1,1.3715029E-3,4.3674447E-3,3.6436398E-2,5.5043697E-2,2.6402988E-2,4.1118454E-2,4.7815056E-3,1.2549698E-2,0E0,0E0,9.85322E-2,1.6843116E-1,0E0,6.997837E-4,0E0,1.1966404E-1,2.1057643E-2,1.908373E-2,8.986434E-3,0E0,0E0,7.5698467E-3,1.5559047E-2,1.1150345E-2,0E0,0E0,0E0,0E0,0E0,0E0,0E0,0E0,0E0,0E0,0E0,0E0,0E0,0E0,0E0,0E0,0E0,0E0,0E0,0E0,0E0,0E0,0E0,0E0,0E0,0E0,0E0,0E0,0E0,0E0,0E0,0E0,0E0,0E0,0E0,0E0,0E0,0E0,0E0,0E0],"parents":[2147483647,0,0,1,1,2,2,3,3,4,4,5,5,6,6,7,7,8,8,9,9,10,10,11,11,12,12,13,13,14,14,15,15,16,16,17,17,18,18,19,19,20,20,23,23,25,25,26,26,27,27,28,28,29,29,30,30,31,31,32,32,33,33,34,34,35,35,36,36,37,37,38,38,39,39,40,40,43,43,44,44,46,46,48,48,49,49,50,50,51,51,54,54,55,55,56,56],"right_children":[2,4,6,8,10,12,14,16,18,20,22,24,26,28,30,32,34,36,38,40,42,-1,-1,44,-1,46,48,50,52,54,56,58,60,62,64,66,68,70,72,74,76,-1,-1,78,80,-1,82,-1,84,86,88,90,-1,-1,92,94,96,-1,-1,-1,-1,-1,-1,-1,-1,-1,-1,-1,-1,-1,-1,-1,-1,-1,-1,-1,-1,-1,-1,-1,-1,-1,-1,-1,-1,-1,-1,-1,-1,-1,-1,-1,-1,-1,-1,-1,-1],"split_conditions":[1E0,1E0,1E0,1E0,4.8800424E-2,1E0,4E-1,1E0,2.6232535E-1,4.749593E-2,3.494328E-1,1E0,3.104944E-2,5.3118266E-2,1E0,1E0,1E0,-1.5861031E-1,1.80419E-1,-2.1809323E-1,-9.938845E-3,-1.1850405E-2,-2.0177593E-3,3E-1,3.149322E-2,-1.3395996E-1,1.5457217E-1,8.548799E-3,1E0,1.00989945E-1,1E0,1E0,-2.9105148E-1,5.3518035E-2,2.2021674E-1,3.2613993E-2,9.951389E-2,3.4061322E-1,2.2216928E-1,-2.4059966E-1,5E-1,2.2142552E-2,-6.0982616E-3,1E0,4E-1,8.120336E-4,5E-1,1.8815096E-2,3.025054E-1,-3.7740134E-2,1E0,-7.8567415E-2,3.440933E-3,6.4363964E-3,1E0,1.4889927E-1,7.479645E-3,5.256551E-4,-4.593165E-3,1.00904945E-2,-5.053916E-3,-7.9856E-3,-9.245756E-3,-1.9244502E-3,-6.7171045E-3,9.97319E-3,-2.5940312E-3,1.2518897E-2,8.693874E-3,-4.1361176E-3,5.1551163E-3,1.5647676E-2,1.19981916E-4,-4.163054E-3,2.7966455E-3,-1.1761653E-2,-2.2631602E-3,-9.9920025E-3,1.35104805E-2,-2.6467403E-3,-5.018534E-3,-5.9560896E-3,-1.2147743E-3,-3.304297E-3,1.384968E-2,-7.213251E-3,8.051118E-4,5.70221E-3,-5.2464195E-3,7.148739E-4,-5.064999E-3,-2.748081E-3,4.299862E-3,6.501682E-3,1.23154605E-2,5.8241473E-3,-1.6684093E-3],"split_indices":[17,102,16,57,2,82,8,24,2,2,1,116,2,2,4,83,12,1,1,1,1,0,0,8,0,2,2,1,58,2,3,81,1,1,2,2,2,2,1,1,8,0,0,64,8,0,8,0,2,2,24,1,0,0,78,2,2,0,0,0,0,0,0,0,0,0,0,0,0,0,0,0,0,0,0,0,0,0,0,0,0,0,0,0,0,0,0,0,0,0,0,0,0,0,0,0,0],"split_type":[0,0,0,0,0,0,0,0,0,0,0,0,0,0,0,0,0,0,0,0,0,0,0,0,0,0,0,0,0,0,0,0,0,0,0,0,0,0,0,0,0,0,0,0,0,0,0,0,0,0,0,0,0,0,0,0,0,0,0,0,0,0,0,0,0,0,0,0,0,0,0,0,0,0,0,0,0,0,0,0,0,0,0,0,0,0,0,0,0,0,0,0,0,0,0,0,0],"sum_hessian":[2.8108E4,2.6694E4,1.414E3,2.6544E4,1.5E2,1.324E3,9E1,2.6325E4,2.19E2,4.5E1,1.05E2,1.297E3,2.7E1,4.7E1,4.3E1,2.6082E4,2.43E2,1.97E2,2.2E1,4.2E1,3E0,1.04E2,1E0,1.296E3,1E0,5E0,2.2E1,2.8E1,1.9E1,9E0,3.4E1,2.5467E4,6.15E2,2.34E2,9E0,1.1E1,1.86E2,1.6E1,6E0,2E0,4E1,2E0,1E0,6.9E1,1.227E3,1E0,4E0,7E0,1.5E1,1.3E1,1.5E1,1.7E1,2E0,2E0,7E0,2.7E1,7E0,2.4779E4,6.88E2,6E0,6.09E2,1.53E2,8.1E1,6E0,3E0,2E0,9E0,1.08E2,7.8E1,1.3E1,3E0,3E0,3E0,1E0,1E0,3.8E1,2E0,6.8E1,1E0,5.35E2,6.92E2,3E0,1E0,9E0,6E0,4E0,9E0,1.4E1,1E0,3E0,1.4E1,6E0,1E0,1.6E1,1.1E1,2E0,5E0],"tree_param":{"num_deleted":"0","num_feature":"157","num_nodes":"97","size_leaf_vector":"1"}},{"base_weights":[5.972937E-5,7.135363E-4,-9.282119E-2,1.9086013E-3,-5.108073E-2,4.3486822E-2,-9.516528E-2,2.5781381E-3,-9.488369E-2,-5.356523E-2,-7.455764E-3,-5.170759E-2,1.6453503E-2,-9.833272E-2,-1.9483017E-2,3.7804064E-3,-5.2745327E-2,-9.8080784E-2,-4.8370957E-2,-5.507486E-2,-1.1811413E-2,-3.473076E-2,1.7340587E-2,-1.5831144E-4,-7.5978274E-3,-5.4689053E-2,-1.0186193E-1,1.6588716E-2,-6.339018E-2,5.2340343E-3,-4.4784E-2,-5.3387497E-2,1.705158E-2,-7.780243E-2,-1.01932725E-2,-5.3729683E-2,-1.0812402E-2,4.249289E-2,-5.5662923E-2,1.3340523E-2,-5.7494864E-2,-5.1896505E-2,1.6846325E-2,9.131867E-2,3.2655983E-3,-7.20451E-2,1.539037E-2,-1.0518337E-1,-5.36581E-2,-1.0383334E-1,3.8626198E-2,6.6405156E-4,-4.7620353E-3,-4.5865052E-3,-1.561704E-3,-5.4643205E-3,-4.0635974E-3,1.5385135E-2,-4.107864E-3,-8.749837E-3,1.1943755E-3,-5.946186E-3,-2.7399878E-3,-1.5018508E-4,-1.4716752E-3,-5.1839496E-3,9.121685E-3,-5.7548676E-3,-3.6577806E-3,-1.8986593E-3,8.179207E-3,-7.37562E-3,-5.807251E-4,-1.4914572E-3,-5.726462E-3,2.0331342E-3,1.4531314E-4,1.1426033E-2,2.271767E-3,1.0074222E-3,-5.2836197E-3,2.6673228E-3,-8.24944E-3,3.6395136E-3,-2.3811967E-3,-1.1641639E-2,-9.335257E-3,-6.232548E-3,2.51752E-3,-1.18358955E-2,-1.5602642E-3,4.7448217E-3,1.0491081E-3],"categories":[],"categories_nodes":[],"categories_segments":[],"categories_sizes":[],"default_left":[0,0,0,0,0,0,0,0,0,0,0,0,0,0,0,0,0,0,0,0,0,0,0,0,0,0,0,0,0,0,0,0,0,0,0,0,0,0,0,0,0,0,0,0,0,0,0,0,0,0,0,0,0,0,0,0,0,0,0,0,0,0,0,0,0,0,0,0,0,0,0,0,0,0,0,0,0,0,0,0,0,0,0,0,0,0,0,0,0,0,0,0,0],"id":16,"left_children":[1,3,5,7,9,11,13,15,17,19,21,23,-1,25,27,29,31,33,35,37,39,41,43,-1,-1,45,47,-1,49,51,53,55,57,59,-1,61,63,65,67,69,71,73,75,77,79,81,83,85,87,89,91,-1,-1,-1,-1,-1,-1,-1,-1,-1,-1,-1,-1,-1,-1,-1,-1,-1,-1,-1,-1,-1,-1,-1,-1,-1,-1,-1,-1,-1,-1,-1,-1,-1,-1,-1,-1,-1,-1,-1,-1,-1,-1],"loss_changes":[1.7027677E0,1.7235718E0,6.6764355E-2,1.7640696E0,6.7667246E-2,5.460016E-2,4.434979E-2,1.7981302E0,2.306366E-2,3.6790967E-2,2.4273464E-2,3.5293829E-3,0E0,2.2924542E-2,8.376732E-2,1.8679552E0,2.6682496E-2,5.660534E-3,2.2367798E-3,3.5241604E-2,2.604561E-2,1.5925368E-2,1.9485362E-2,0E0,0E0,2.0569634E-2,2.1573901E-2,0E0,3.7017606E-2,1.9100034E0,2.353108E-2,6.9066286E-3,5.4033205E-2,2.8890625E-2,0E0,1.8187612E-4,8.695261E-5,2.3113623E-2,1.8409252E-2,3.4745567E-2,6.2957536E-3,1.7267242E-3,2.3868342E-4,2.1257345E-3,7.025877E-3,1.5610367E-2,4.1603833E-3,1.012969E-2,1.0451671E-2,5.8429167E-3,2.468424E-4,0E0,0E0,0E0,0E0,0E0,0E0,0E0,0E0,0E0,0E0,0E0,0E0,0E0,0E0,0E0,0E0,0E0,0E0,0E0,0E0,0E0,0E0,0E0,0E0,0E0,0E0,0E0,0E0,0E0,0E0,0E0,0E0,0E0,0E0,0E0,0E0,0E0,0E0,0E0,0E0,0E0,0E0],"parents":[2147483647,0,0,1,1,2,2,3,3,4,4,5,5,6,6,7,7,8,8,9,9,10,10,11,11,13,13,14,14,15,15,16,16,17,17,18,18,19,19,20,20,21,21,22,22,25,25,26,26,28,28,29,29,30,30,31,31,32,32,33,33,35,35,36,36,37,37,38,38,39,39,40,40,41,41,42,42,43,43,44,44,45,45,46,46,47,47,48,48,49,49,50,50],"right_children":[2,4,6,8,10,12,14,16,18,20,22,24,-1,26,28,30,32,34,36,38,40,42,44,-1,-1,46,48,-1,50,52,54,56,58,60,-1,62,64,66,68,70,72,74,76,78,80,82,84,86,88,90,92,-1,-1,-1,-1,-1,-1,-1,-1,-1,-1,-1,-1,-1,-1,-1,-1,-1,-1,-1,-1,-1,-1,-1,-1,-1,-1,-1,-1,-1,-1,-1,-1,-1,-1,-1,-1,-1,-1,-1,-1,-1,-1],"split_conditions":[1E0,1E0,-1.9290474E-1,1E0,1E0,-9.26314E-2,2.2216928E-1,1E0,1E0,1E0,9.455232E-2,-1.2836154E-1,1.6453503E-2,-4.606798E-2,-6.412404E-3,1E0,3.781609E-1,-6.868028E-2,1E0,-3.9902958E-1,1.8983783E-2,3.4879003E-2,1.1009079E-1,-1.5831144E-4,-7.5978274E-3,-7.281454E-2,1E0,1.6588716E-2,2.5312585E-1,1E0,1E0,1E0,-2.3971608E-2,-7.8567415E-2,-1.01932725E-2,1.9245009E-1,-6.9786124E-2,3.104944E-2,1E0,-9.982641E-2,1E0,-2.5982765E-2,1.3140385E-1,4.6122074E-2,1.2564173E-1,-2.9105148E-1,4E-1,1.2559745E-2,5E-1,3.494328E-1,2.8478298E-1,6.6405156E-4,-4.7620353E-3,-4.5865052E-3,-1.561704E-3,-5.4643205E-3,-4.0635974E-3,1.5385135E-2,-4.107864E-3,-8.749837E-3,1.1943755E-3,-5.946186E-3,-2.7399878E-3,-1.5018508E-4,-1.4716752E-3,-5.1839496E-3,9.121685E-3,-5.7548676E-3,-3.6577806E-3,-1.8986593E-3,8.179207E-3,-7.37562E-3,-5.807251E-4,-1.4914572E-3,-5.726462E-3,2.0331342E-3,1.4531314E-4,1.1426033E-2,2.271767E-3,1.0074222E-3,-5.2836197E-3,2.6673228E-3,-8.24944E-3,3.6395136E-3,-2.3811967E-3,-1.1641639E-2,-9.335257E-3,-6.232548E-3,2.51752E-3,-1.18358955E-2,-1.5602642E-3,4.7448217E-3,1.0491081E-3],"split_indices":[80,55,2,19,16,1,1,103,16,12,2,1,0,2,2,67,1,1,12,1,1,1,2,0,0,2,12,0,2,83,16,14,2,1,0,1,1,2,14,1,17,2,1,1,1,1,8,1,8,1,1,0,0,0,0,0,0,0,0,0,0,0,0,0,0,0,0,0,0,0,0,0,0,0,0,0,0,0,0,0,0,0,0,0,0,0,0,0,0,0,0,0,0],"split_type":[0,0,0,0,0,0,0,0,0,0,0,0,0,0,0,0,0,0,0,0,0,0,0,0,0,0,0,0,0,0,0,0,0,0,0,0,0,0,0,0,0,0,0,0,0,0,0,0,0,0,0,0,0,0,0,0,0,0,0,0,0,0,0,0,0,0,0,0,0,0,0,0,0,0,0,0,0,0,0,0,0,0,0,0,0,0,0,0,0,0,0,0,0],"sum_hessian":[2.8038E4,2.7843E4,1.95E2,2.7216E4,6.27E2,3E0,1.92E2,2.703E4,1.86E2,5.93E2,3.4E1,2E0,1E0,1.84E2,8E0,2.6456E4,5.74E2,1.73E2,1.3E1,5.72E2,2.1E1,1.6E1,1.8E1,1E0,1E0,1.5E1,1.69E2,1E0,7E0,2.5688E4,7.68E2,5.69E2,5E0,3.1E1,1.42E2,1.1E1,2E0,3E0,5.69E2,1.4E1,7E0,1.2E1,4E0,2E0,1.6E1,1.2E1,3E0,1.57E2,1.2E1,5E0,2E0,2.5023E4,6.65E2,7.4E2,2.8E1,5.15E2,5.4E1,1E0,4E0,2.8E1,3E0,8E0,3E0,1E0,1E0,1E0,2E0,5.16E2,5.3E1,1E1,4E0,5E0,2E0,2E0,1E1,3E0,1E0,1E0,1E0,1.5E1,1E0,1E0,1.1E1,2E0,1E0,7.6E1,8.1E1,1.1E1,1E0,4E0,1E0,1E0,1E0],"tree_param":{"num_deleted":"0","num_feature":"157","num_nodes":"93","size_leaf_vector":"1"}},{"base_weights":[8.660927E-5,-1.0048738E-3,6.263767E-2,-1.7702027E-3,7.9092674E-2,5.451418E-4,6.602581E-2,-4.5355853E-5,-3.5129577E-2,6.049143E-2,1.1645693E-1,1.5045336E-2,-1.1469321E-2,6.881826E-2,7.556414E-3,6.6895504E-4,-8.515677E-2,-3.9762888E-2,2.8557431E-2,-5.892598E-3,7.300583E-2,4.762008E-2,1.8108256E-1,6.390483E-2,-2.8869389E-2,5.685828E-2,8.450349E-2,-3.0523708E-2,4.183349E-2,1.2831626E-3,-1.0052604E-1,-8.681338E-2,-4.624091E-2,-4.20012E-2,5.318402E-2,-2.5050406E-4,5.737081E-2,-2.6803039E-2,1.3149841E-1,-6.8166526E-3,8.133421E-2,7.819155E-2,-2.129164E-2,1.8979596E-1,-9.679659E-3,8.0749765E-3,2.5758282E-3,6.3596093E-3,-5.1037975E-2,6.032081E-2,8.68662E-3,6.734224E-2,1.09799154E-1,-5.267068E-2,6.5867947E-3,6.330676E-2,-1.6939724E-2,2.2167165E-4,-6.3886545E-3,-1.0092298E-2,-1.9500736E-3,-8.935747E-3,-6.811665E-3,-2.761369E-3,-5.7161315E-3,-9.503013E-3,-3.8762179E-3,-3.8557951E-3,7.307473E-3,-4.9276924E-4,1.07450085E-2,6.211161E-3,-7.798257E-3,4.9422E-3,-6.3426504E-3,1.5351564E-2,3.272336E-3,-5.3772302E-3,4.099108E-3,7.4173547E-3,1.7334199E-2,1.2672903E-3,1.2754858E-2,5.0910516E-3,-6.7060674E-3,1.9565681E-2,-2.8179989E-3,-5.7849246E-3,6.929654E-3,-6.3531697E-3,-7.0441683E-4,3.9565304E-4,6.3083367E-3,-8.8365044E-4,3.1695087E-3,7.34517E-3,-3.6538255E-3,-3.94822E-3,1.166629E-2,-7.637711E-3,4.3969305E-4,3.6337655E-3,-5.6208326E-3,1.2580812E-3,8.657292E-3,-4.5434027E-3,7.703051E-4],"categories":[],"categories_nodes":[],"categories_segments":[],"categories_sizes":[],"default_left":[0,0,0,0,0,0,0,0,0,0,0,0,0,0,0,0,0,0,0,0,0,0,0,0,0,0,0,0,0,0,0,0,0,0,0,0,0,0,0,0,0,0,0,0,0,0,0,0,0,0,0,0,0,0,0,0,0,0,0,0,0,0,0,0,0,0,0,0,0,0,0,0,0,0,0,0,0,0,0,0,0,0,0,0,0,0,0,0,0,0,0,0,0,0,0,0,0,0,0,0,0,0,0,0,0,0,0],"id":17,"left_children":[1,3,5,7,9,11,13,15,17,19,21,-1,23,25,27,29,31,33,35,37,39,41,43,45,47,49,51,53,55,57,59,61,63,65,67,69,71,73,75,77,79,81,83,85,-1,-1,-1,87,89,91,93,95,97,99,101,103,105,-1,-1,-1,-1,-1,-1,-1,-1,-1,-1,-1,-1,-1,-1,-1,-1,-1,-1,-1,-1,-1,-1,-1,-1,-1,-1,-1,-1,-1,-1,-1,-1,-1,-1,-1,-1,-1,-1,-1,-1,-1,-1,-1,-1,-1,-1,-1,-1,-1,-1],"loss_changes":[1.9227792E0,1.6969506E0,1.01576686E-1,1.5776824E0,1.7505097E-1,4.8553333E-2,7.425892E-2,1.5851306E0,3.9890575E-1,1.4747411E-1,3.739586E-1,0E0,3.4632776E-2,7.7174425E-2,2.999297E-2,1.6072019E0,9.975314E-3,2.637452E-1,7.637934E-2,8.683884E-2,9.960848E-2,9.225431E-2,1.24907374E-1,1.1329055E-3,1.67251E-2,4.1341662E-2,7.378352E-2,9.387668E-3,1.6217032E-2,1.5637757E0,3.0491352E-3,3.7595034E-3,6.5914914E-4,2.072401E-1,5.756201E-2,2.4205072E-2,3.436105E-2,7.571691E-2,3.6754683E-3,3.587683E-2,7.608551E-2,9.5397756E-2,4.967881E-2,6.0447097E-2,0E0,0E0,0E0,4.0378723E-2,6.6978745E-3,3.6186516E-2,7.5373175E-3,7.50342E-2,8.042878E-2,9.80591E-3,1.1383522E-2,9.532627E-3,3.1586955E-3,0E0,0E0,0E0,0E0,0E0,0E0,0E0,0E0,0E0,0E0,0E0,0E0,0E0,0E0,0E0,0E0,0E0,0E0,0E0,0E0,0E0,0E0,0E0,0E0,0E0,0E0,0E0,0E0,0E0,0E0,0E0,0E0,0E0,0E0,0E0,0E0,0E0,0E0,0E0,0E0,0E0,0E0,0E0,0E0,0E0,0E0,0E0,0E0,0E0,0E0],"parents":[2147483647,0,0,1,1,2,2,3,3,4,4,5,5,6,6,7,7,8,8,9,9,10,10,12,12,13,13,14,14,15,15,16,16,17,17,18,18,19,19,20,20,21,21,22,22,23,23,24,24,25,25,26,26,27,27,28,28,29,29,30,30,31,31,32,32,33,33,34,34,35,35,36,36,37,37,38,38,39,39,40,40,41,41,42,42,43,43,47,47,48,48,49,49,50,50,51,51,52,52,53,53,54,54,55,55,56,56],"right_children":[2,4,6,8,10,12,14,16,18,20,22,-1,24,26,28,30,32,34,36,38,40,42,44,46,48,50,52,54,56,58,60,62,64,66,68,70,72,74,76,78,80,82,84,86,-1,-1,-1,88,90,92,94,96,98,100,102,104,106,-1,-1,-1,-1,-1,-1,-1,-1,-1,-1,-1,-1,-1,-1,-1,-1,-1,-1,-1,-1,-1,-1,-1,-1,-1,-1,-1,-1,-1,-1,-1,-1,-1,-1,-1,-1,-1,-1,-1,-1,-1,-1,-1,-1,-1,-1,-1,-1,-1,-1],"split_conditions":[1E0,1E0,3E-1,1E0,4E-1,-2.0777088E-1,1E0,1E0,1E0,-7.024875E-2,-1.1033991E-2,1.5045336E-2,-1.04137175E-1,4E-1,5.023912E-2,1E0,1E0,1E0,4E-1,7.49072E-2,-4.871834E-2,-3.0453635E-2,1.1051939E-1,-1.1986178E-1,-2.6845876E-2,1E0,3.0206105E-2,-5.881298E-3,5.766207E-2,1E0,3.494328E-1,1E0,6.375063E-4,3E-1,3.104944E-2,1E0,1E0,-5.881298E-3,-1.4459467E-1,2.6647437E-2,1E0,6.146194E-2,-8.093224E-3,1E0,-9.679659E-3,8.0749765E-3,2.5758282E-3,-9.982641E-2,1.6622072E-1,-1.6372071E-1,4.1565903E-2,2.345677E-2,-1.8294995E-1,1E0,5E-1,-5.859364E-2,6.699921E-2,2.2167165E-4,-6.3886545E-3,-1.0092298E-2,-1.9500736E-3,-8.935747E-3,-6.811665E-3,-2.761369E-3,-5.7161315E-3,-9.503013E-3,-3.8762179E-3,-3.8557951E-3,7.307473E-3,-4.9276924E-4,1.07450085E-2,6.211161E-3,-7.798257E-3,4.9422E-3,-6.3426504E-3,1.5351564E-2,3.272336E-3,-5.3772302E-3,4.099108E-3,7.4173547E-3,1.7334199E-2,1.2672903E-3,1.2754858E-2,5.0910516E-3,-6.7060674E-3,1.9565681E-2,-2.8179989E-3,-5.7849246E-3,6.929654E-3,-6.3531697E-3,-7.0441683E-4,3.9565304E-4,6.3083367E-3,-8.8365044E-4,3.1695087E-3,7.34517E-3,-3.6538255E-3,-3.94822E-3,1.166629E-2,-7.637711E-3,4.3969305E-4,3.6337655E-3,-5.6208326E-3,1.2580812E-3,8.657292E-3,-4.5434027E-3,7.703051E-4],"split_indices":[44,20,8,17,8,1,17,104,16,2,1,0,2,8,2,102,16,82,8,1,1,1,1,2,1,14,1,1,1,86,1,14,1,8,2,46,97,1,2,2,10,2,2,14,0,0,0,1,2,1,2,1,2,12,8,1,1,0,0,0,0,0,0,0,0,0,0,0,0,0,0,0,0,0,0,0,0,0,0,0,0,0,0,0,0,0,0,0,0,0,0,0,0,0,0,0,0,0,0,0,0,0,0,0,0,0,0],"split_type":[0,0,0,0,0,0,0,0,0,0,0,0,0,0,0,0,0,0,0,0,0,0,0,0,0,0,0,0,0,0,0,0,0,0,0,0,0,0,0,0,0,0,0,0,0,0,0,0,0,0,0,0,0,0,0,0,0,0,0,0,0,0,0,0,0,0,0,0,0,0,0,0,0,0,0,0,0,0,0,0,0,0,0,0,0,0,0,0,0,0,0,0,0,0,0,0,0,0,0,0,0,0,0,0,0,0,0],"sum_hessian":[2.8161E4,2.7679E4,4.82E2,2.7418E4,2.61E2,2.5E1,4.57E2,2.6071E4,1.347E3,1.76E2,8.5E1,1E0,2.4E1,4.36E2,2.1E1,2.5855E4,2.16E2,1.256E3,9.1E1,2.8E1,1.48E2,4.2E1,4.3E1,4E0,2E1,2.5E2,1.86E2,1E1,1.1E1,2.57E4,1.55E2,2.06E2,1E1,1.227E3,2.9E1,4.6E1,4.5E1,2.5E1,3E0,1.4E1,1.34E2,2.9E1,1.3E1,4.2E1,1E0,2E0,2E0,8E0,1.2E1,2.33E2,1.7E1,1.13E2,7.3E1,6E0,4E0,8E0,3E0,2.5338E4,3.62E2,1.54E2,1E0,1.78E2,2.8E1,5E0,5E0,6.9E1,1.158E3,5E0,2.4E1,4.5E1,1E0,4.4E1,1E0,8E0,1.7E1,2E0,1E0,7E0,7E0,1.26E2,8E0,1.3E1,1.6E1,5E0,8E0,4.1E1,1E0,4E0,4E0,9E0,3E0,1.1E1,2.22E2,1E1,7E0,1.07E2,6E0,3E0,7E1,4E0,2E0,3E0,1E0,3E0,5E0,1E0,2E0],"tree_param":{"num_deleted":"0","num_feature":"157","num_nodes":"107","size_leaf_vector":"1"}},{"base_weights":[-1.11085734E-4,-8.0199656E-4,8.763824E-2,4.5597888E-4,-4.6038132E-2,9.932273E-2,2.7162958E-2,1.6425975E-3,-5.0140798E-2,-4.2037893E-2,-9.092551E-2,-5.051469E-2,1.02085315E-1,3.6375225E-2,-8.93678E-3,2.9991025E-3,-4.5765713E-2,-4.1147385E-2,-5.8692332E-2,-1.6462997E-2,-4.7071714E-2,-9.924122E-2,-4.4104878E-2,2.6583194E-3,-8.507505E-3,9.8031215E-2,1.8885416E-1,5.3418063E-2,-2.7821619E-2,3.6524613E-3,-9.621322E-2,-4.674918E-2,-1.912314E-2,-4.3167595E-2,3.975396E-2,-6.0927376E-2,-3.0149939E-2,-2.937651E-2,2.517149E-2,-4.9722064E-2,-1.18750045E-2,-8.443679E-3,-1.1359285E-2,-4.873224E-2,1.084365E-4,6.0600076E-2,1.07627966E-1,5.0954963E-3,2.0334488E-2,2.8031236E-2,1.6459122E-1,-8.164044E-3,4.6407305E-2,4.4555074E-4,-7.5424365E-3,-1.0427219E-2,-8.205647E-3,-5.3304397E-3,-4.2767297E-3,4.2166203E-4,-3.4473375E-3,-4.02126E-3,-5.8218697E-3,5.514338E-3,-3.398601E-3,-6.2870565E-3,-2.568087E-3,-3.6612109E-3,3.0211612E-4,5.7022194E-3,-3.980914E-3,-4.418648E-5,1.1916078E-2,-5.0621117E-3,2.5965774E-3,-6.0802223E-3,9.722623E-4,-1.3521627E-3,-5.1142126E-3,3.974067E-3,2.2796985E-2,1.3019914E-2,7.2252336E-3,9.171076E-3,-9.540449E-4,1.8571947E-2,4.0039145E-3,1.1736679E-2,-1.6368119E-3],"categories":[],"categories_nodes":[],"categories_segments":[],"categories_sizes":[],"default_left":[0,0,0,0,0,0,0,0,0,0,0,0,0,0,0,0,0,0,0,0,0,0,0,0,0,0,0,0,0,0,0,0,0,0,0,0,0,0,0,0,0,0,0,0,0,0,0,0,0,0,0,0,0,0,0,0,0,0,0,0,0,0,0,0,0,0,0,0,0,0,0,0,0,0,0,0,0,0,0,0,0,0,0,0,0,0,0,0,0],"id":18,"left_children":[1,3,5,7,9,11,13,15,17,19,21,23,25,27,-1,29,31,33,35,37,39,41,43,-1,-1,45,47,49,51,53,55,57,59,61,63,65,67,69,71,73,75,-1,-1,77,-1,79,81,-1,-1,83,85,-1,87,-1,-1,-1,-1,-1,-1,-1,-1,-1,-1,-1,-1,-1,-1,-1,-1,-1,-1,-1,-1,-1,-1,-1,-1,-1,-1,-1,-1,-1,-1,-1,-1,-1,-1,-1,-1],"loss_changes":[1.7073255E0,1.5900301E0,1.527592E-1,1.6323045E0,1.3192534E-1,8.132124E-2,4.2970724E-2,1.7084577E0,4.549837E-2,8.882773E-2,1.9373178E-2,1.29196895E-2,4.5156598E-2,3.977956E-2,0E0,